target_word,V1,V2,V3,V4,V5,V6,V7,V8,V9,V10,V11,V12,V13,V14,V15,V16,V17,V18,V19,V20,V21,V22,V23,V24,V25,V26,V27,V28,V29,V30,V31,V32,V33,V34,V35,V36,V37,V38,V39,V40,V41,V42,V43,V44,V45,V46,V47,V48,V49,V50,V51,V52,V53,V54,V55,V56,V57,V58,V59,V60,V61,V62,V63,V64,V65,V66,V67,V68,V69,V70,V71,V72,V73,V74,V75,V76,V77,V78,V79,V80,V81,V82,V83,V84,V85,V86,V87,V88,V89,V90,V91,V92,V93,V94,V95,V96,V97,V98,V99,V100,V101,V102,V103,V104,V105,V106,V107,V108,V109,V110,V111,V112,V113,V114,V115,V116,V117,V118,V119,V120,V121,V122,V123,V124,V125,V126,V127,V128,V129,V130,V131,V132,V133,V134,V135,V136,V137,V138,V139,V140,V141,V142,V143,V144,V145,V146,V147,V148,V149,V150,V151,V152,V153,V154,V155,V156,V157,V158,V159,V160,V161,V162,V163,V164,V165,V166,V167,V168,V169,V170,V171,V172,V173,V174,V175,V176,V177,V178,V179,V180,V181,V182,V183,V184,V185,V186,V187,V188,V189,V190,V191,V192,V193,V194,V195,V196,V197,V198,V199,V200,V201,V202,V203,V204,V205,V206,V207,V208,V209,V210,V211,V212,V213,V214,V215,V216,V217,V218,V219,V220,V221,V222,V223,V224,V225,V226,V227,V228,V229,V230,V231,V232,V233,V234,V235,V236,V237,V238,V239,V240,V241,V242,V243,V244,V245,V246,V247,V248,V249,V250,V251,V252,V253,V254,V255,V256,V257,V258,V259,V260,V261,V262,V263,V264,V265,V266,V267,V268,V269,V270,V271,V272,V273,V274,V275,V276,V277,V278,V279,V280,V281,V282,V283,V284,V285,V286,V287,V288,V289,V290,V291,V292,V293,V294,V295,V296,V297,V298,V299,V300
little,0.2876831889152527,0.028130941092967987,-0.10146136581897736,-0.22137604653835297,-0.09339534491300583,0.08042711764574051,0.0070381504483520985,0.14304842054843903,-0.018455257639288902,0.023525239899754524,-0.17274515330791473,-0.029354192316532135,0.14152655005455017,-0.1579349786043167,-0.06735503673553467,-0.03422248363494873,0.2568961977958679,-0.5232003331184387,0.07659295201301575,0.11457816511392593,0.0051953052170574665,-0.1918594241142273,0.13742589950561523,0.02301747165620327,0.14019501209259033,-0.05565036088228226,0.006745736580342054,0.18688832223415375,0.07262905687093735,0.003992622718214989,0.03343067318201065,-0.069539375603199,-0.3106827735900879,0.12573747336864471,0.10867982357740402,0.09464599192142487,0.32888028025627136,-0.267147421836853,0.19037942588329315,0.04034128785133362,0.14244088530540466,-0.1660112887620926,-0.0692242980003357,-0.20005512237548828,0.24378222227096558,-0.012172169052064419,0.07875954359769821,0.04066261649131775,0.1119849681854248,-0.017686929553747177,0.027727404609322548,0.061711400747299194,-0.05948249623179436,0.13391798734664917,-0.046316053718328476,0.09802312403917313,0.07366974651813507,0.22681866586208344,-0.018111003562808037,-0.20991875231266022,-0.088581182062625885,-0.09245292097330093,0.1746445894241333,-0.32337236404418945,0.09799852967262268,-0.11236554384231567,0.07999622076749802,0.0032927771098911762,-0.15679879486560822,0.17391589283943176,0.20091862976551056,0.15149851143360138,0.04058913514018059,0.1650971919298172,0.019569193944334984,-0.02591952122747898,0.3940010368824005,0.07258325070142746,-0.14328007400035858,-0.10107256472110748,-0.008234715089201927,0.189481720328331,-0.11276831477880478,-0.020858317613601685,-0.05413445085287094,-0.0013693036744371057,0.1804758459329605,0.13234727084636688,-0.18557648360729218,-0.28698429465293884,-0.09956646710634232,-0.08905304968357086,0.02556498721241951,0.06760206073522568,-0.10592658072710037,0.07706690579652786,-0.0326266810297966,0.18142329156398773,5.38662716280669e-4,0.13355816900730133,0.06628945469856262,-0.03698265179991722,-0.1929648518562317,-0.03893200680613518,0.3077872097492218,-0.005621073301881552,-0.14803798496723175,0.019983528181910515,0.1081041693687439,-0.14848005771636963,0.035356782376766205,0.31018102169036865,0.19889947772026062,0.0010271399514749646,-0.127735435962677,0.13873901963233948,0.043995220214128494,-0.20273813605308533,0.04919081926345825,0.18608863651752472,0.0011787107214331627,-0.17540724575519562,0.08506974577903748,0.16220013797283173,-0.1711312234401703,-0.18647810816764832,-0.21713340282440186,0.06320171803236008,0.039176683872938156,-0.04443717002868652,0.15121255815029144,0.16531312465667725,0.1981402039527893,0.05971899628639221,0.1053299605846405,-0.10302645713090897,0.18299466371536255,0.06670376658439636,-0.05998179316520691,-0.06936825066804886,0.036161962896585464,0.2066994607448578,0.11634689569473267,0.02636192925274372,0.08823212236166,0.10206817090511322,0.06973252445459366,-0.26411351561546326,0.2587448060512543,0.11139629781246185,0.1569594144821167,0.1736300140619278,0.17060768604278564,0.20050784945487976,0.18334327638149261,0.07966067641973495,0.15235818922519684,0.009919398464262486,0.3408035933971405,-0.09357428550720215,-0.2543308436870575,-0.219272181391716,-0.10985498875379562,0.23995883762836456,-0.18349584937095642,0.17930664122104645,-0.02337758056819439,0.12676730751991272,-0.012422868981957436,0.043819375336170197,-0.1799876093864441,-0.14188648760318756,-0.15284964442253113,-0.20030105113983154,-0.06733903288841248,0.15525846183300018,-0.15856562554836273,0.09141868352890015,-0.09810072183609009,0.029902514070272446,0.1820916086435318,-0.15100298821926117,-0.01906900480389595,-0.09285791218280792,0.07187003642320633,0.1760273426771164,0.0233719814568758,-0.1662706881761551,0.0125872902572155,-0.06296049058437347,-0.14498832821846008,-0.02378312312066555,-0.04099727421998978,0.1073760837316513,0.27700915932655334,-0.09246381372213364,0.11049983650445938,0.1767788529396057,0.10763747990131378,0.10263015329837799,0.0766240805387497,0.07192500680685043,0.08049503713846207,-0.03932876139879227,0.07550960034132004,-0.13939081132411957,0.07547935843467712,0.3172377943992615,0.02630489505827427,-0.09612026810646057,0.17176660895347595,0.2548646628856659,0.230605810880661,0.21140453219413757,0.08479609340429306,-0.3599315881729126,0.12531544268131256,-0.025185948237776756,0.06216965243220329,-0.29516127705574036,0.0023678268771618605,-0.01865200698375702,-0.022572720423340797,0.08005774766206741,-0.10982539504766464,0.14949068427085876,-0.01894747093319893,0.11351162940263748,0.25776711106300354,0.24132239818572998,-0.05673862248659134,-0.2742854058742523,0.007701267022639513,-0.07564608752727509,0.3782746493816376,-0.014082313515245914,0.053117815405130386,0.16337792575359344,0.029085909947752953,-0.04600037634372711,-0.02276669815182686,-0.14284469187259674,-0.1322287917137146,-0.041067223995923996,0.35014471411705017,0.15741680562496185,-0.09465079754590988,-0.07702772319316864,0.22135870158672333,-0.08728688955307007,-0.2245485782623291,0.05611071363091469,0.022029776126146317,0.20928895473480225,0.21719162166118622,0.1455933302640915,0.022378968074917793,0.1758624017238617,0.04795678332448006,0.15707466006278992,0.29513928294181824,0.004779118578881025,0.0960359126329422,0.1428096741437912,-0.09040328860282898,0.07155304402112961,-0.04450063779950142,-0.2646603584289551,0.08220776915550232,-0.19978295266628265,0.1237943172454834,-0.1162818968296051,-0.08068110793828964,0.02328772470355034,0.17717182636260986,-0.002371425973251462,0.010128834284842014,-0.10814090073108673,-0.26768940687179565,-0.13002462685108185,-0.1246851459145546,-0.019896408542990685,0.27613580226898193,-0.09768074750900269,0.0420428104698658,-0.18812434375286102,-0.03810229152441025,-0.2152290940284729,-0.13365116715431213,-0.26602795720100403,-0.06639706343412399,0.12900225818157196,-0.2904871702194214,0.09393405169248581,-0.008500264026224613,-0.17382659018039703,-0.14367720484733582,0.054570529609918594,0.04800310358405113,0.050456032156944275
big,0.3119267225265503,0.28365692496299744,-0.17161427438259125,-0.18757367134094238,-0.14808622002601624,0.055889956653118134,-0.003377515822649002,0.020886756479740143,0.31082117557525635,0.19270171225070953,0.2865867018699646,0.03379852697253227,0.035267964005470276,-0.4868201017379761,0.2820684015750885,0.00822641421109438,-0.1725962907075882,-0.1276329606771469,-0.18493670225143433,0.2809797525405884,-0.3588087558746338,-0.11546927690505981,-0.058404963463544846,-0.11846570670604706,-0.17255309224128723,0.12020079046487808,-0.02467392012476921,0.42245978116989136,0.21955302357673645,0.0693289041519165,0.2187269777059555,-0.18408143520355225,-0.17763979732990265,-0.022021254524588585,-0.029207106679677963,-0.3680155277252197,-0.05418374761939049,-0.0828411728143692,0.07429333031177521,8.316462626680732e-4,0.051062826067209244,-0.08327323943376541,0.06743476539850235,-0.09779955446720123,0.12261006981134415,-0.17252661287784576,0.01737893931567669,0.06616032123565674,0.39320558309555054,-0.10169867426156998,-0.08171290904283524,-0.045167069882154465,-0.14580582082271576,-0.022793220356106758,-0.05485604330897331,0.41364720463752747,0.06997084617614746,0.19477242231369019,-0.0742717757821083,-0.4037974178791046,-0.07291624695062637,0.24338534474372864,-0.0936678871512413,-0.4159623384475708,0.15496160089969635,-0.05976526066660881,-0.12935931980609894,0.38238435983657837,0.0582166388630867,0.28270041942596436,-0.0686078742146492,0.21680568158626556,0.020445382222533226,-0.2561987638473511,0.23263520002365112,0.40578004717826843,0.3347233533859253,-0.03228574991226196,-0.11655564606189728,-0.06399017572402954,0.3851523697376251,-0.10074801743030548,-0.007748892065137625,0.20206275582313538,-0.21270233392715454,-0.11370744556188583,-0.1822950392961502,0.17389851808547974,-0.06075272709131241,-0.1545979082584381,-0.23807789385318756,-0.13872213661670685,0.11379506438970566,0.05092528462409973,-0.2698056101799011,0.0030817429069429636,0.1489710509777069,0.014128882437944412,-0.11390826106071472,0.058933813124895096,-0.0853050947189331,0.36632105708122253,-0.06628333777189255,0.046981651335954666,0.17606563866138458,-0.2665662169456482,-0.22167837619781494,-0.01794448494911194,0.05688559636473656,4.193203494651243e-6,-0.14204254746437073,-0.09377074241638184,0.028190264478325844,0.13466161489486694,-0.007447118405252695,-0.09859596192836761,0.1463923305273056,-0.17782504856586456,-0.055898766964673996,-0.2747019827365875,-0.18695718050003052,-0.14755234122276306,-0.11447024345397949,0.04085934907197952,-0.02777356468141079,0.11790170520544052,-0.022565172985196114,-0.16105851531028748,-0.30142882466316223,-0.3705121576786041,0.024374257773160934,-0.05169568583369255,-0.04182744026184082,0.17377761006355286,0.2900179326534271,0.09315574169158936,-0.048816464841365814,-0.01646423153579235,-0.09275158494710922,-0.14170946180820465,-0.22090928256511688,0.12048925459384918,0.005033799447119236,-0.19680850207805634,-0.05366303771734238,0.19484594464302063,0.14832253754138947,0.07509146630764008,0.4629020094871521,0.13618849217891693,0.057243455201387405,-0.2934902310371399,0.13916252553462982,0.3712962567806244,-0.03228143975138664,0.379560261964798,0.07592367380857468,-0.06006776541471481,0.36613065004348755,-0.13743460178375244,-0.3497608006000519,-0.12596537172794342,-0.3186129629611969,0.09323546290397644,0.11060556769371033,-0.09770862013101578,-0.1434636414051056,0.18350686132907867,0.001930709695443511,0.17206121981143951,-0.19913794100284576,-0.08119571954011917,0.05287192016839981,0.23342128098011017,-0.21260102093219757,0.22448794543743134,0.08535116165876389,0.30427101254463196,-0.2501475512981415,0.05251998454332352,0.022173959761857986,0.159390389919281,-0.3315582871437073,0.23510104417800903,-0.4553420841693878,-0.01266536582261324,-0.0678832083940506,-0.0679495632648468,0.0708637461066246,-0.10492697358131409,0.21302348375320435,-0.13401146233081818,-0.006336939055472612,0.0024953417014330626,0.12235519289970398,-0.1253976672887802,0.04793721064925194,0.044537726789712906,-0.17171315848827362,0.020458897575736046,0.13691745698451996,0.1268308162689209,0.06286385655403137,-0.07719549536705017,-0.013549486175179482,-0.048511896282434464,0.08035077154636383,0.1312095671892166,-0.18829180300235748,-0.3383951485157013,-0.01756727322936058,0.4701828360557556,0.22255657613277435,0.006390243303030729,-0.29126501083374023,-0.3422117829322815,0.3408379852771759,-0.01663147658109665,0.13857315480709076,-0.06408271193504333,0.02374902181327343,-0.20291928946971893,-0.16920068860054016,0.13077609241008759,-0.37895500659942627,0.0021961394231766462,0.0822417363524437,-0.09684149920940399,0.1239025741815567,-0.12340280413627625,-0.22674918174743652,-0.0069257160648703575,-0.04724691063165665,-0.059237875044345856,-0.2452070415019989,0.24202774465084076,0.004274899605661631,-0.17017216980457306,0.28742170333862305,-0.19122974574565887,0.09848126769065857,0.01959000527858734,-0.07697194814682007,-0.09421423077583313,0.30927425622940063,0.12081164121627808,-0.22838209569454193,0.04600527137517929,-0.03928617388010025,-0.037280403077602386,0.0034085980150848627,0.10628543049097061,-0.17084859311580658,0.014399201609194279,-0.058486852794885635,0.058216750621795654,-0.16168902814388275,-0.36650770902633667,0.007675790693610907,0.0760471373796463,0.39767220616340637,0.01641874574124813,0.17969214916229248,-0.004299688618630171,-0.06275767832994461,-0.09818911552429199,-0.4066888391971588,-0.02405022643506527,-0.08287716656923294,-0.030266597867012024,0.20570339262485504,0.10357233136892319,-0.05605519935488701,0.4024879038333893,-0.06059310585260391,-0.16329804062843323,0.17246177792549133,0.013388272374868393,0.08601407706737518,-0.00785732176154852,-0.11724132299423218,-0.18528395891189575,0.4132792055606842,0.1819581687450409,0.3107881546020508,-0.2420988529920578,-0.2168254256248474,-0.11195330321788788,-0.14375661313533783,-0.23904308676719666,0.3779468834400177,-0.06632713228464127,-0.012513681314885616,0.02161579765379429,-0.04763873666524887,0.10094665735960007,-0.12286663800477982,0.10276862978935242,0.0797634869813919,0.2842397689819336
long,0.03417814150452614,0.4329030513763428,-0.2512342631816864,-0.034435831010341644,-0.22996319830417633,0.16392576694488525,-0.0688222274184227,0.15402305126190186,0.02538430318236351,0.0174003466963768,-0.1101226881146431,-0.1674356311559677,0.055851224809885025,0.008332096971571445,0.3850732445716858,0.28816887736320496,-0.11362116038799286,-0.38844266533851624,-0.2983919382095337,-0.02415725216269493,-0.34708312153816223,0.13127806782722473,0.11191383749246597,-0.1980067491531372,-0.4641997814178467,0.3257327079772949,0.16714856028556824,0.03901725262403488,0.1271534115076065,0.13776624202728271,-0.34684237837791443,0.1557084172964096,0.21105000376701355,-0.08011095970869064,-0.22466379404067993,-0.1310565024614334,-0.14919228851795197,-0.1769392490386963,0.21059001982212067,0.025171399116516113,-0.24237363040447235,0.3191570043563843,0.08888958394527435,-0.28791922330856323,-0.1239006444811821,-0.14020176231861115,0.29612475633621216,-0.03318597376346588,-0.14933691918849945,0.1829015016555786,-0.11932414770126343,-0.21189431846141815,-0.09294655174016953,0.16711048781871796,-0.3457987308502197,0.036906301975250244,0.3390388488769531,0.08768103271722794,0.015143392607569695,-0.2114865928888321,-0.08943875879049301,-0.07264958322048187,0.38596460223197937,-0.0360059030354023,0.34084171056747437,-0.06513942033052444,-0.23390643298625946,-0.6043890714645386,0.0144748380407691,-0.05383528023958206,-0.15536020696163177,-0.07002515345811844,-0.03937981277704239,-0.26194360852241516,-0.15531209111213684,0.004004256334155798,0.4714251756668091,0.07382192462682724,-0.03229865804314613,0.20424550771713257,0.16457214951515198,0.017801133915781975,-0.12270135432481766,0.17221127450466156,-0.2083655148744583,-0.04704080522060394,-0.06086398661136627,-0.08081326633691788,0.5383353233337402,0.24984033405780792,-0.25268566608428955,0.08929665386676788,0.31581705808639526,0.24710595607757568,0.20975515246391296,-0.06859273463487625,-0.07788445800542831,-0.021788587793707848,-0.2434341162443161,0.21202649176120758,-0.11806373298168182,0.3219565451145172,-0.28427454829216003,-0.15515555441379547,0.1463109254837036,-0.07151959091424942,-0.34172725677490234,0.3818958103656769,0.05926216393709183,-0.5676056742668152,-0.02153143659234047,-0.2979174256324768,0.10880354791879654,-0.17814615368843079,-0.00548711558803916,0.2441345602273941,0.09570545703172684,-0.14693628251552582,-0.20859727263450623,0.29581940174102783,-0.350702702999115,-0.056369323283433914,-0.30169692635536194,0.010079530999064445,0.32494205236434937,-0.13430236279964447,0.24507702887058258,-0.2450857013463974,-0.4069288372993469,-0.419899582862854,0.14080937206745148,-0.09556161612272263,0.11583101004362106,-0.02579338848590851,-0.19842466711997986,0.202269047498703,-0.058485135436058044,0.22397373616695404,-0.14108319580554962,0.27000245451927185,-0.06533660739660263,0.22053495049476624,-0.10274466127157211,-0.23571939766407013,0.13700658082962036,-0.05098751187324524,0.06871522217988968,0.30160069465637207,0.13965322077274323,0.26380977034568787,0.21097572147846222,0.06369441002607346,-0.009981796145439148,-0.20772624015808105,-0.16545575857162476,0.0867476612329483,0.03763135150074959,-0.38075417280197144,-0.2570576071739197,-0.2869057357311249,0.17037653923034668,-0.06621281802654266,-0.1281275600194931,-0.04541948810219765,-0.2650989294052124,-0.050404660403728485,0.4633781313896179,-0.070356585085392,-0.35744744539260864,0.10301736742258072,0.13953830301761627,-0.41434553265571594,-0.20689845085144043,-0.14210638403892517,0.21696023643016815,-0.11203839629888535,-0.03305838257074356,0.2278471738100052,0.018343286588788033,0.06603379547595978,0.29842254519462585,-0.09053805470466614,-0.041800424456596375,-0.2171223759651184,-0.25109967589378357,-0.051231399178504944,-0.06316515803337097,-0.02884465828537941,-0.05762285366654396,-0.23020923137664795,-0.20732857286930084,-0.1834351271390915,-0.3791764974594116,-0.2162008434534073,0.2679157853126526,0.08662386983633041,0.0058814045041799545,0.06756874173879623,0.3145115077495575,-0.16759908199310303,0.26838091015815735,0.07421325892210007,-0.03195711970329285,-0.023171933367848396,0.06890542060136795,0.11852510273456573,0.13819332420825958,0.3224446177482605,-0.30682671070098877,0.03564014285802841,0.11262314021587372,-0.032652486115694046,-0.19850675761699677,-0.0029255247209221125,-0.07826030254364014,0.24836449325084686,0.18012547492980957,-0.11700794845819473,0.03453926742076874,-0.20044416189193726,-0.013954424299299717,-0.0035063554532825947,-0.07844816893339157,-0.031224383041262627,-0.02710992470383644,-0.10506057739257812,0.12500132620334625,-7.834631251171231e-4,0.07581575214862823,0.27897435426712036,0.10684151202440262,-0.5129064917564392,0.1326656937599182,-0.1395266205072403,-0.07480122148990631,0.025157539173960686,-0.08802177011966705,0.10837207734584808,0.4266602396965027,0.24840901792049408,0.3730289340019226,-0.24625594913959503,-0.16763828694820404,0.2822602689266205,-0.0938401073217392,-0.2809608280658722,-0.3881588578224182,0.0322033129632473,-0.12434229999780655,-0.037257399410009384,-0.25236454606056213,-0.09681997448205948,0.15287238359451294,-0.09420628100633621,0.03414126858115196,-0.09543447941541672,-0.04138704016804695,0.197896346449852,0.14160607755184174,-0.011285975575447083,0.4458980858325958,0.2864273488521576,-0.047404080629348755,-0.2114495038986206,0.1690744012594223,-0.048357557505369186,-0.03325885534286499,0.020561736077070236,0.4533989727497101,-0.007855206727981567,0.07074867933988571,0.07341980189085007,0.1209113746881485,0.28794074058532715,0.3921915888786316,0.12761078774929047,0.35453182458877563,-0.2438383549451828,-0.04281976446509361,-0.2873588800430298,-0.0060265627689659595,0.015063336119055748,0.1023678407073021,0.026939447969198227,-0.06102050468325615,-0.24262568354606628,-0.0918811559677124,0.0695263147354126,-0.12806902825832367,0.009829217568039894,2.186717465519905e-4,-0.03333892673254013,-0.19969971477985382,0.046904101967811584,0.5533539652824402,-0.18375518918037415,0.05307609587907791,0.021872246637940407,0.22448553144931793,-0.21718527376651764
cat,0.00270049343816936,0.3668595850467682,-0.043299153447151184,-0.049640677869319916,0.013077090494334698,0.05626745522022247,0.1871323436498642,0.2746514081954956,-0.06142936646938324,0.4857887029647827,0.3606317937374115,-0.31208550930023193,-0.03804619237780571,-0.02308536320924759,-0.08115475624799728,0.012114259414374828,-0.06529843062162399,-0.27642324566841125,-0.19739006459712982,0.6010928750038147,-0.07541602104902267,0.1669699102640152,0.12085487693548203,0.3709653615951538,0.18011215329170227,0.28763145208358765,-0.15601056814193726,0.07659583538770676,0.03408435359597206,-0.20756277441978455,-0.029902465641498566,-0.14209583401679993,0.07158107310533524,0.2639376223087311,0.01649004966020584,-0.3767765760421753,-0.10195039212703705,0.2337666004896164,-0.12177526205778122,0.04527541249990463,-0.0677337646484375,-0.0016924134688451886,-0.08382350951433182,-0.16486844420433044,-0.07994552701711655,-0.14723853766918182,0.48454156517982483,-0.1308901309967041,-0.032829489558935165,0.2459849715232849,0.33488187193870544,0.17923162877559662,-0.1580769419670105,0.12099926918745041,-0.045222122222185135,0.3166973888874054,8.321335189975798e-5,0.19329002499580383,-0.30752676725387573,-0.09613845497369766,-0.4115779995918274,0.04888077452778816,-0.06157512217760086,0.2752264440059662,-0.09271082282066345,0.08961635082960129,0.0669529139995575,-0.42231589555740356,0.17189769446849823,0.11420761048793793,-0.35818853974342346,0.018809042870998383,0.12369564920663834,-0.09537095576524734,-0.4344015121459961,-0.22811812162399292,-0.21429771184921265,-0.5123443603515625,-0.6601640582084656,-0.21386809647083282,-0.2772865295410156,0.3095356822013855,-0.2985042333602905,0.07669760286808014,0.4334162175655365,0.005166033282876015,-0.36272093653678894,0.27963095903396606,0.14244218170642853,-0.2965087592601776,-0.6459930539131165,0.15390700101852417,0.06295842677354813,0.15004846453666687,0.10837613046169281,0.09310013800859451,0.019739383831620216,0.3921236991882324,0.18446019291877747,0.12366940826177597,-0.21376922726631165,0.016138160601258278,0.054218076169490814,-0.3229392468929291,0.6178315877914429,0.2388022541999817,0.24728353321552277,-0.1989258974790573,-0.09651189297437668,-0.5267521142959595,-0.11732613295316696,0.37307336926460266,-0.19847534596920013,0.018612468615174294,-0.05961224436759949,-0.08371361345052719,-0.26846107840538025,-0.19432955980300903,-0.07686277478933334,0.14659005403518677,0.04911559820175171,0.004090151283890009,0.2702701687812805,0.023529043421149254,0.086085744202137,0.055231280624866486,-0.0861559510231018,0.12285259366035461,-0.10908085852861404,-0.15638266503810883,0.023938892409205437,0.26664474606513977,0.07250736653804779,-0.37185123562812805,-0.33425846695899963,-0.023938387632369995,0.12832599878311157,0.10795837640762329,0.31946098804473877,-0.30200809240341187,0.2914125323295593,0.1664193719625473,-0.06902826577425003,0.487445592880249,0.3539903461933136,-0.05094745010137558,0.2581176161766052,0.21949318051338196,0.1698894053697586,0.32382920384407043,0.21655404567718506,0.053181540220975876,-0.21910083293914795,0.13203838467597961,0.0023529333993792534,0.26174837350845337,-0.6647616028785706,0.04250726103782654,-0.0031855946872383356,-0.14957503974437714,-0.05848558247089386,-0.2841782569885254,-0.052352145314216614,0.1597953587770462,0.061717692762613297,0.14058835804462433,-0.20760983228683472,-0.4047897160053253,0.30836519598960876,0.378936767578125,0.045992348343133926,0.23174980282783508,0.27847912907600403,-0.27122679352760315,-0.08058393746614456,0.27938735485076904,-0.16172997653484344,-0.0014137658290565014,0.2896471321582794,0.26722288131713867,-0.060529474169015884,-0.5335878729820251,-0.15112599730491638,0.2835294306278229,0.31992077827453613,0.23124705255031586,-0.02676262892782688,-0.09576395899057388,-0.008833152242004871,0.13238325715065002,-0.3236655294895172,-0.21475976705551147,-0.04426060989499092,0.08095444738864899,0.28140828013420105,-0.03563807159662247,0.44304269552230835,-0.3313387632369995,0.2407597005367279,-0.4554077088832855,-0.3307863771915436,0.10457743704319,0.050403326749801636,0.04591728374361992,0.11526116728782654,-0.3815023601055145,0.10817844420671463,0.28409603238105774,0.061219025403261185,0.01511660497635603,0.3636566698551178,0.02804628759622574,0.021019751206040382,0.0990363135933876,-0.013236370868980885,0.14115002751350403,0.610510528087616,-0.26867836713790894,0.12007445096969604,-0.10414000600576401,0.25292155146598816,-0.12212663888931274,-0.2712176740169525,-0.03321325406432152,-0.24777372181415558,0.07524307072162628,0.3818777799606323,0.23781901597976685,0.42719757556915283,-0.06987743824720383,-0.24139522016048431,-0.039156243205070496,-0.6862847208976746,-0.3739703297615051,0.1836952567100525,0.445250928401947,-0.1823154091835022,-0.26152896881103516,0.07242988049983978,-0.49834540486335754,-0.0679958239197731,0.050732169300317764,-0.17403008043766022,0.043153733015060425,-0.6830345392227173,-0.00226988666690886,-0.13017767667770386,0.46922656893730164,0.2908760607242584,0.41384994983673096,-0.24805335700511932,0.05053190886974335,-0.11178501695394516,0.0759337842464447,0.30101126432418823,0.08591185510158539,-0.22911328077316284,0.3011932671070099,-0.05460076779127121,0.4062437117099762,0.36610570549964905,0.08655848354101181,0.10121549665927887,-0.05151650309562683,-0.04162716865539551,-0.42958196997642517,-0.019567102193832397,-0.3204900920391083,0.3332941234111786,-5.39527740329504e-4,-0.03705191612243652,0.06371701508760452,-0.3415793180465698,-0.048023659735918045,-0.08892930299043655,-0.15779978036880493,0.3770950734615326,-0.2563788890838623,-0.0914718508720398,0.08006734400987625,-0.014203867875039577,-0.08533747494220734,-0.06806394457817078,-0.2096867561340332,-0.03222392126917839,0.07921496778726578,0.1297612339258194,-0.3683199882507324,-0.10363055020570755,-0.12881362438201904,0.029284628108143806,0.15972308814525604,0.01414366066455841,0.16477671265602112,0.027421897277235985,-0.546528160572052,0.17734773457050323,0.048775237053632736,-0.08654095977544785,0.03215805068612099
bear,0.13363397121429443,-0.11146267503499985,0.1670616716146469,-0.13529729843139648,0.020658046007156372,0.5294950008392334,0.2968098521232605,0.05763107165694237,0.07673587650060654,0.04905422404408455,0.04016708955168724,-0.16131362318992615,0.20686109364032745,0.21417737007141113,-0.30066388845443726,-0.09682176262140274,0.20443123579025269,-0.060733966529369354,0.30600327253341675,-0.04505293071269989,-0.13496147096157074,0.27485060691833496,0.4012235999107361,-0.30782297253608704,-0.4857844114303589,0.30068156123161316,0.2759721577167511,0.39968886971473694,0.22413209080696106,0.23148959875106812,-0.33018529415130615,0.1388203650712967,0.011529969051480293,-0.28966134786605835,0.02039475366473198,0.17249195277690887,0.11529479175806046,-0.30304113030433655,-0.42235296964645386,0.021735582500696182,0.42175453901290894,-0.44803768396377563,0.2959907650947571,-0.24712201952934265,0.33213475346565247,0.4392871856689453,-0.17421524226665497,0.5078926086425781,0.19362567365169525,-0.029438989236950874,-0.021650340408086777,-0.3225387930870056,-0.16740025579929352,-0.09062313288450241,0.45779475569725037,0.12506498396396637,-0.18913869559764862,0.06521806865930557,0.21987229585647583,0.017400657758116722,0.030475061386823654,0.16924965381622314,0.16940632462501526,-0.11630620807409286,-0.13308106362819672,0.1677953600883484,0.24151982367038727,-0.02710101380944252,-0.06471128016710281,-0.005115468055009842,-0.20575158298015594,0.40316861867904663,-0.24366514384746552,-0.20601074397563934,-0.08215003460645676,0.20381486415863037,0.27090489864349365,0.6353581547737122,0.04285933077335358,0.26114726066589355,0.03256208077073097,0.05289609730243683,-0.015981873497366905,-0.17673395574092865,-0.09350508451461792,-0.06309197843074799,0.21436583995819092,0.03361905366182327,0.13405893743038177,-0.4847450256347656,-0.056070100516080856,0.4321697950363159,0.03008986823260784,-0.07037670165300369,0.23431575298309326,-0.1499978005886078,0.17047053575515747,0.027829185128211975,0.15011070668697357,0.0311125498265028,0.5331719517707825,-0.2220740169286728,0.2416137307882309,-0.5161454677581787,-0.025572100654244423,0.3549709916114807,-0.28154224157333374,0.32701972126960754,0.04794051870703697,-0.017950797453522682,0.11813250184059143,0.614949107170105,0.3013538420200348,0.132860004901886,-0.06986329704523087,-0.17398902773857117,0.09221570938825607,0.16826966404914856,0.0822332426905632,0.1306169480085373,0.12337280064821243,-0.3639897108078003,0.1693158894777298,-0.37934789061546326,-0.11926238238811493,-0.4190366864204407,0.21922175586223602,0.08512774109840393,-0.2685433626174927,-0.44337722659111023,0.0017953980714082718,0.024511348456144333,0.31873518228530884,-0.2640438973903656,0.05717141926288605,-0.1092642992734909,-0.15140530467033386,0.0927557721734047,0.09110318124294281,0.7516930103302002,-0.07959628105163574,-0.02536371909081936,-0.11028255522251129,-0.254808634519577,0.077438585460186,0.12292813509702682,0.09994781762361526,0.1300840824842453,0.3769875764846802,0.1490664929151535,-0.0684979036450386,-0.21479324996471405,0.692846953868866,-0.013094649650156498,-0.2732856869697571,-0.14654207229614258,-0.21439868211746216,0.32788193225860596,0.22770103812217712,0.22904792428016663,-0.47248557209968567,-0.4601548910140991,-0.14718490839004517,0.11837656795978546,-0.4231416881084442,-0.0013566275592893362,0.022886423394083977,0.35541316866874695,0.01747317612171173,0.1172572523355484,0.13094832003116608,-0.46337559819221497,-0.15498347580432892,-0.23114264011383057,-0.13803422451019287,-0.043173227459192276,-0.19274207949638367,0.4257028102874756,-0.1559448093175888,0.18822500109672546,-0.15821240842342377,0.15048667788505554,0.048124104738235474,0.04332219064235687,-0.31717559695243835,0.6765295267105103,0.1360660195350647,-0.019151881337165833,-0.006902450229972601,0.30283793807029724,-0.4238622188568115,-0.3158128261566162,-0.047688018530607224,0.09022559225559235,0.8486247062683105,0.06232916936278343,8.664042106829584e-4,0.014915073290467262,-0.20548802614212036,-0.13572560250759125,0.36989519000053406,0.3783843517303467,0.10131319612264633,-0.26700928807258606,-0.4006673991680145,-0.48378580808639526,0.1867225021123886,0.33048906922340393,-0.23441258072853088,0.1003880575299263,-0.1607024371623993,0.4858430027961731,0.11479774862527847,0.273074209690094,-0.3144860565662384,-0.08611465245485306,-0.16506525874137878,-0.3376743197441101,0.09333967417478561,-0.03368033096194267,-0.0907851979136467,0.026230255141854286,-0.08262549340724945,0.11568688601255417,0.07368214428424835,0.33375588059425354,0.06290745735168457,0.3894091546535492,0.1282583624124527,0.04322444647550583,-0.29730668663978577,0.011713529005646706,0.247217059135437,-0.6229695677757263,0.0013425818178802729,0.2771598994731903,-0.07948214560747147,-0.13175766170024872,0.30238384008407593,-0.36160898208618164,0.32810792326927185,0.3675472140312195,-0.11224798113107681,-0.0737004205584526,-0.007329342886805534,-0.19124701619148254,-0.3050336241722107,0.15318521857261658,-0.5391295552253723,-0.07818029820919037,-0.34478896856307983,0.22105544805526733,-0.36245498061180115,-0.41370752453804016,-0.200868159532547,-0.02262432686984539,-0.16806748509407043,-0.23918569087982178,0.48221859335899353,0.3140406608581543,-0.13518482446670532,0.03603121638298035,0.2534332871437073,-0.0709574818611145,-0.15385672450065613,0.4444155991077423,0.34062156081199646,-0.11845958977937698,-0.11059754341840744,0.33397337794303894,0.05515177547931671,-0.21715110540390015,-0.3830334544181824,0.1608573943376541,0.003980575129389763,-0.0518086701631546,-0.05509941652417183,0.031110430136322975,0.05716902017593384,-0.4447251856327057,-0.33236730098724365,0.0394911915063858,-0.06087110564112663,0.3255670964717865,-0.32753661274909973,0.3465334177017212,0.29970505833625793,-0.5585718750953674,-0.20088118314743042,3.879456489812583e-4,0.3201427161693573,-0.29756855964660645,-0.3403854966163635,0.15992029011249542,0.34402868151664734,-0.3742876648902893,0.05261223390698433,0.1557454913854599,-0.16277094185352325,0.46127447485923767
red,0.4341425597667694,-0.21777282655239105,0.3140873610973358,-0.25911015272140503,-0.4407235383987427,0.009481320157647133,0.19430853426456451,0.15714135766029358,0.23159368336200714,0.3403106927871704,-0.3405713438987732,0.4267888367176056,0.08571895211935043,-0.2124423235654831,-0.1594170480966568,-0.4570828080177307,0.013558228500187397,-0.29477062821388245,-0.028529882431030273,0.020139776170253754,-0.4574204683303833,0.010864664800465107,0.19041188061237335,0.181422621011734,0.07394316047430038,0.126329243183136,0.14044108986854553,0.2693118751049042,-0.08014272153377533,-0.28791818022727966,-0.22247041761875153,0.20887476205825806,-0.37055131793022156,0.4282817542552948,-0.08981940150260925,-0.3977939486503601,-9.76906972937286e-4,-0.0675206109881401,-0.18362975120544434,0.02005317062139511,-0.22843895852565765,0.08514033257961273,0.2793683111667633,-0.025369569659233093,0.6309120059013367,0.1007145568728447,-0.13884638249874115,-0.21387962996959686,0.15482918918132782,-0.20159265398979187,0.258962482213974,0.07218270003795624,0.2269543707370758,0.36062708497047424,-0.07363369315862656,0.018807901069521904,3.10464616632089e-4,0.550606906414032,-0.22188922762870789,-0.33347514271736145,0.0785638615489006,-0.0018250927096232772,0.012416522018611431,-0.4156997799873352,-0.3479342460632324,-0.14218918979167938,-0.2224264144897461,-0.2668030560016632,0.21311764419078827,0.3709118664264679,-0.10972695797681808,-0.2095470428466797,0.11351535469293594,-0.04499567300081253,0.07566717267036438,-0.21828579902648926,0.34619203209877014,-0.1013244166970253,-0.23371146619319916,-0.3335683345794678,0.1257910132408142,-0.15035144984722137,-0.09837973862886429,0.0320616289973259,-0.30844172835350037,0.034212056547403336,0.3091738224029541,-0.07819204777479172,0.10464570671319962,-0.10229908674955368,0.20972761511802673,-0.02406913787126541,0.2238747924566269,0.2190910130739212,-0.006772713270038366,-0.07782654464244843,-0.02512786164879799,0.21852320432662964,-0.17641222476959229,0.05726780742406845,-0.057122547179460526,-0.0557088740170002,0.07780560851097107,9.600894409231842e-4,0.7159202098846436,-0.059220265597105026,0.11053083837032318,0.054221514612436295,0.18860554695129395,-0.32118794322013855,0.008997640572488308,0.162723109126091,-0.3275807499885559,-0.3309096693992615,0.2450839728116989,0.13902682065963745,-0.028452839702367783,0.5711235404014587,-0.14930260181427002,-0.20765237510204315,0.3329123556613922,-0.11405199766159058,0.1934051215648651,-0.09383461624383926,0.04878994822502136,-0.11150010675191879,-0.16717588901519775,0.0951072946190834,0.10241349041461945,-0.40187549591064453,0.1598525196313858,0.2705210745334625,-0.1165209412574768,-0.027345260605216026,-0.3963928520679474,0.08568825572729111,-0.22402909398078918,0.16644065082073212,-0.03362772613763809,0.28785714507102966,-0.26701846718788147,-0.05610295757651329,0.47544559836387634,-0.019477227702736855,0.3432975113391876,-0.04779574275016785,0.16707542538642883,-0.01556463073939085,0.5159314870834351,0.2539069652557373,-0.08673921972513199,-0.20396405458450317,0.3333946764469147,0.10304568707942963,-9.200780768878758e-4,0.18196600675582886,-0.28758344054222107,-0.1424359828233719,0.2046177089214325,-0.11661359667778015,-0.26121941208839417,-0.04698962718248367,0.29277142882347107,0.180148646235466,-0.4756983816623688,-0.027249347418546677,-0.08706973493099213,-0.42645949125289917,0.29229480028152466,0.16069750487804413,-0.17982761561870575,-0.04993787407875061,0.26976650953292847,-0.375282347202301,-0.16404074430465698,-0.22166293859481812,-0.3670174181461334,-0.007478003390133381,0.43847715854644775,0.08015862107276917,0.07192739099264145,-0.20426514744758606,0.016924336552619934,0.02419322356581688,-0.339634507894516,0.09036929905414581,-0.08929844945669174,-0.0828285813331604,-0.08420056849718094,0.24618853628635406,-0.10383913666009903,-0.026986125856637955,-0.121137835085392,-0.1822691708803177,0.4428713619709015,0.17207488417625427,0.26064419746398926,-0.23169735074043274,0.14783592522144318,-0.13915294408798218,0.25858551263809204,-0.8213539719581604,-0.01011287234723568,0.1459241807460785,0.31982627511024475,-0.3691556453704834,0.3640075623989105,0.1904023140668869,0.30000367760658264,0.06365419924259186,-0.12964841723442078,-0.25394612550735474,0.10681326687335968,0.24310287833213806,0.41372987627983093,0.07691816985607147,0.1388317495584488,0.34023210406303406,0.07714136689901352,0.09793918579816818,-0.003340496914461255,-0.13605321943759918,-0.33520516753196716,0.008688547648489475,0.12404271215200424,0.0698477178812027,0.06722486019134521,0.049572721123695374,0.2577466368675232,0.1623382270336151,0.10191608220338821,-0.30679190158843994,0.029056092724204063,-0.13388638198375702,0.16866087913513184,-0.16213402152061462,0.028880666941404343,-0.02055441401898861,0.19024698436260223,-0.07352466136217117,0.23870989680290222,0.16562969982624054,0.3312050700187683,0.059864602982997894,-0.2918730080127716,0.1901865005493164,0.05730263888835907,0.057971447706222534,0.2809869647026062,-0.2396487444639206,0.14850282669067383,0.24864259362220764,-0.383623331785202,-0.19145594537258148,-0.03340377286076546,-0.2476850301027298,0.14247313141822815,0.1465664952993393,0.08164501190185547,0.1206434890627861,0.20078882575035095,0.3177136480808258,0.10947173833847046,0.2625301480293274,0.2511768341064453,-0.4446260929107666,0.15456436574459076,-0.15480785071849823,0.16545332968235016,0.39286476373672485,0.4633820056915283,0.09235575795173645,-0.1126057356595993,0.12207093089818954,-0.35508131980895996,-0.02121434547007084,0.18637941777706146,0.14566747844219208,-0.465141624212265,0.06456302106380463,-0.4283002018928528,0.0698719471693039,0.15191692113876343,0.1639854460954666,0.11216647177934647,-0.07620828598737717,0.0525871142745018,0.04464954882860184,-0.37149733304977417,-0.01491102296859026,0.020152445882558823,-0.35219165682792664,-0.127762570977211,0.19492149353027344,-0.006961669307202101,-0.5116299390792847,-0.17059552669525146,-0.1723405122756958,0.002242839662358165,-0.038009241223335266
blue,0.32192152738571167,0.014724393375217915,0.3231221139431,-0.454765647649765,0.04975777491927147,0.12336654216051102,-0.07464287430047989,-0.19725817441940308,-0.3118972182273865,0.23121047019958496,-0.25779053568840027,-0.12970656156539917,0.2700139880180359,-0.2040565311908722,-0.4679979383945465,0.28908035159111023,-0.13579489290714264,-0.4723556339740753,0.2542407810688019,0.20845475792884827,-0.27690568566322327,0.07460350543260574,-0.03635009378194809,0.48198986053466797,-0.32901731133461,-0.019511191174387932,0.03310582786798477,0.23281806707382202,-0.16151243448257446,-0.23344933986663818,0.10505523532629013,-0.1922035664319992,-0.2976687550544739,0.014575384557247162,-0.1439041942358017,-0.03979533910751343,0.24993646144866943,0.20792332291603088,-0.3838384449481964,-0.4689284861087799,-0.1295883059501648,0.24408167600631714,-0.2598177492618561,-0.1464725136756897,0.09105983376502991,0.09172147512435913,-0.017012817785143852,-0.3391925096511841,0.03765704482793808,-0.3262748122215271,-0.09155140072107315,-0.08661437779664993,-0.14498922228813171,0.09617140889167786,-0.252474308013916,-0.32492151856422424,-0.04546942189335823,0.22685933113098145,-0.33866292238235474,0.23545657098293304,0.18798264861106873,0.21990911662578583,-0.20371638238430023,-0.18778617680072784,-0.24886199831962585,-0.25128865242004395,-0.41176265478134155,0.020570935681462288,0.43887773156166077,0.14869840443134308,-0.4422076940536499,-0.09066066145896912,-0.42043882608413696,-0.019828781485557556,0.02349996566772461,0.14053472876548767,0.48794645071029663,-0.011164396069943905,-0.002476195339113474,-0.5653759241104126,-0.028455758467316628,0.16816996037960052,0.3132084310054779,0.2155027985572815,-0.18629881739616394,0.11402925103902817,-0.05302753299474716,0.03883478790521622,-0.08363775163888931,-0.5135502219200134,-0.1705176830291748,-0.14633791148662567,0.1841578334569931,0.2792759835720062,-0.04735279828310013,-0.16490115225315094,0.2285580337047577,0.7571395635604858,-0.2929072082042694,0.4168727397918701,0.02202785201370716,-0.18806631863117218,0.1783808469772339,0.032242514193058014,0.32991454005241394,-0.0893220379948616,-0.3236168920993805,0.19066311419010162,0.3532535135746002,0.0205453522503376,-0.4705064594745636,-0.10489894449710846,-0.03351033106446266,-0.345333456993103,0.22349123656749725,-0.2245156317949295,0.2691698968410492,-0.014399528503417969,-0.5606383681297302,-0.2373996376991272,0.1662273406982422,0.003977814689278603,0.008669116534292698,-0.15175464749336243,-0.19259561598300934,-0.05953435227274895,-0.22731636464595795,0.19906149804592133,0.060578614473342896,-0.3226085603237152,0.0030952156521379948,0.06083664298057556,0.03642405569553375,0.1466408520936966,-0.6265103816986084,0.07257743179798126,-0.13770504295825958,0.23398315906524658,-0.1833542436361313,-0.09001318365335464,-0.08362392336130142,0.23169651627540588,-0.12222527712583542,0.32263851165771484,-0.1771150380373001,-0.13993576169013977,-0.14280612766742706,-0.09449155628681183,0.3828125,0.11847740411758423,0.05016929656267166,-0.5524247884750366,0.3871362507343292,0.1569945365190506,-0.12351914495229721,-0.0056394170969724655,-0.05673353374004364,0.08092115074396133,-0.15252164006233215,-0.3644999563694,-0.2952347993850708,-0.49604400992393494,-0.21489779651165009,0.05194012075662613,-0.4513976573944092,0.11370070278644562,-0.14021091163158417,0.2167041003704071,-0.42919981479644775,0.41074973344802856,-0.35102370381355286,-0.19125984609127045,0.009700916707515717,-0.337089478969574,-0.26013967394828796,-0.43985193967819214,0.1353491246700287,0.10049068182706833,-0.15110500156879425,0.016045307740569115,0.17898839712142944,0.025787699967622757,-0.02723572961986065,-0.11116840690374374,-0.1850009709596634,0.5142567753791809,0.31232425570487976,-0.11109325289726257,-0.10242415219545364,-0.024329332634806633,-0.10689757764339447,0.026123108342289925,0.38178572058677673,0.05364980548620224,0.18324103951454163,-0.1059630885720253,-0.1674833595752716,-0.11345284432172775,-0.02680760808289051,-0.34014973044395447,-0.022146131843328476,-0.30363979935646057,-0.15974920988082886,-0.611859142780304,0.01689378172159195,-0.34486815333366394,0.2776735723018646,0.3689381778240204,-0.3859328329563141,0.2189348340034485,0.07909699529409409,0.18862387537956238,-0.1064395010471344,0.36438414454460144,0.0022679748944938183,-0.02169010601937771,0.025470374152064323,0.2346482127904892,0.7502322793006897,-0.06358004361391068,0.2393966168165207,0.3198246955871582,-0.25905269384384155,0.10270893573760986,-0.5069552063941956,0.07496077567338943,0.07960616797208786,0.13584867119789124,0.026018911972641945,0.4536725878715515,-0.09106867015361786,-0.25609609484672546,0.3429984748363495,-0.20276591181755066,-0.2455538660287857,-0.41156113147735596,0.11418558657169342,-0.32807472348213196,0.5811520218849182,-0.13960526883602142,0.05720990523695946,-0.04013737663626671,0.12259593605995178,0.0857931524515152,0.20686458051204681,0.2582429349422455,-0.2433902621269226,-0.22795931994915009,0.372861385345459,0.24906471371650696,0.42176008224487305,0.540787935256958,-0.26361027359962463,0.1439855694770813,-0.012164582498371601,-0.5231683254241943,0.04310927540063858,-0.5499054193496704,-0.1549060344696045,0.27333739399909973,0.6331381797790527,-0.1587204933166504,0.2802083194255829,0.2566602826118469,-0.10423384606838226,0.07134881615638733,-0.19498269259929657,0.03577283397316933,0.3833068609237671,-0.10760623961687088,0.44718801975250244,-0.06566730886697769,0.12353724241256714,-0.28832748532295227,-0.052131254225969315,-0.6373700499534607,-0.09657421708106995,0.19270020723342896,-0.015330897644162178,0.27349865436553955,-0.5669519305229187,0.2638399302959442,0.21503587067127228,-0.02133967913687229,0.12720701098442078,-0.4470274746417999,-0.20091937482357025,0.17819657921791077,0.0020316457375884056,0.11155057698488235,-0.08499376475811005,-0.16609103977680206,-0.25436484813690186,0.1957087367773056,0.2232959270477295,0.28063589334487915,-0.44238996505737305,0.07667943835258484,-0.18942177295684814,0.019462373107671738
small,0.09983014315366745,0.3188924789428711,-0.10637576878070831,-0.27888575196266174,0.2024206966161728,-0.030531935393810272,0.236100435256958,0.1927705854177475,-0.08355598151683807,-0.11815519630908966,-0.2692001163959503,-0.12674279510974884,0.04692603275179863,-0.6005092263221741,-0.38290226459503174,0.13537701964378357,-0.09130210429430008,-0.2815984785556793,-0.261276513338089,0.3894089460372925,-0.1385192573070526,-0.1686992049217224,-0.03908557444810867,-0.022425275295972824,0.3270404636859894,1.5524623449891806e-5,-0.3246127665042877,-0.09833095967769623,-0.16039137542247772,0.10303758829832077,0.1755818873643875,-0.18810135126113892,-0.30528855323791504,0.32807397842407227,-0.13138152658939362,-0.0833551213145256,0.3147248923778534,-0.06902095675468445,0.1312466263771057,0.05235837772488594,-0.022743750363588333,-0.12392059713602066,-0.07374908030033112,0.001378761138767004,-0.0752069354057312,-0.23134081065654755,0.3201598823070526,-0.007923576049506664,-0.0393640473484993,-0.028081005439162254,-0.36149096488952637,-0.19035713374614716,-0.045680899173021317,-0.14902250468730927,0.17391733825206757,-0.07173479348421097,0.04244733601808548,0.018783574923872948,-0.19492830336093903,0.19612564146518707,0.31271058320999146,0.2352202981710434,0.04286889731884003,0.02928435057401657,0.1871110498905182,-0.17599494755268097,-0.23364225029945374,-0.13500063121318817,-0.1308441460132599,-0.06429532170295715,-0.060007985681295395,-0.020765192806720734,-0.21766045689582825,-0.43944814801216125,0.22964805364608765,-0.1424931138753891,0.15670712292194366,-0.012957129627466202,-0.16885162889957428,0.42260995507240295,-0.035823386162519455,-0.22489847242832184,-0.12185546010732651,0.07300110906362534,-0.3063563108444214,-0.031225677579641342,-0.08544185012578964,0.27119842171669006,0.14431644976139069,-0.07865840941667557,-0.578046977519989,-0.39520078897476196,0.026629088446497917,0.12676607072353363,0.06390231102705002,-0.044409774243831635,0.29280006885528564,-0.11972000449895859,0.14530956745147705,-0.020072342827916145,-0.0537085197865963,-0.061415862292051315,-0.04035839065909386,-0.07651387155056,0.0811825692653656,0.025010619312524796,-0.15217749774456024,0.12096358835697174,0.27168428897857666,-0.004439066164195538,0.3593917191028595,0.010800630785524845,-0.16435623168945312,0.2953049838542938,-0.10245195776224136,-0.07594568282365799,-0.14473195374011993,0.17119909822940826,0.4134572446346283,-0.1601388305425644,0.04220900684595108,-0.13800610601902008,-0.0106582660228014,0.1581929326057434,-0.047407835721969604,-0.24333319067955017,-0.0879906415939331,-0.11430991441011429,0.17825573682785034,-0.0913538932800293,-0.06183604523539543,0.009722075425088406,0.24451300501823425,-0.16312140226364136,0.31051716208457947,-0.2863096296787262,0.2667642831802368,0.041547901928424835,0.1630817949771881,0.2567227780818939,0.09299293905496597,0.11847848445177078,-0.02074834331870079,-0.23888824880123138,0.19985507428646088,0.23101040720939636,-0.14224548637866974,0.16994021832942963,0.24188584089279175,0.06618792563676834,0.2511488199234009,-0.19499564170837402,-0.2130826860666275,0.09048068523406982,-0.4158746004104614,0.41606929898262024,-0.07112766802310944,-0.13465802371501923,0.05720774456858635,-0.45975375175476074,-0.20500817894935608,-0.24118918180465698,0.20783033967018127,-0.18091706931591034,-0.3797121047973633,-0.27148929238319397,-0.015409103594720364,-0.28646236658096313,0.2404617816209793,0.34628060460090637,-0.048472076654434204,-0.33208897709846497,-0.4753076434135437,-0.2573525607585907,-0.159458190202713,0.06936345249414444,-0.14362573623657227,0.0304733756929636,0.2521907091140747,0.0838974192738533,-0.20100072026252747,0.08382323384284973,-0.20338815450668335,0.012832076288759708,-0.1009688675403595,-0.21437406539916992,0.12967075407505035,-0.06807954609394073,-0.1707582026720047,-0.14328159391880035,-0.10519343614578247,-0.0624629408121109,-0.23429840803146362,0.37880071997642517,0.1966436356306076,0.11318433284759521,0.14330114424228668,0.01436882559210062,-0.2129262089729309,-0.1389472931623459,0.17007969319820404,-0.3061898648738861,0.320511132478714,-0.25656893849372864,-0.21963997185230255,-0.582251787185669,0.21596165001392365,0.1108248233795166,-0.1032060757279396,-0.0768536925315857,0.25344711542129517,0.35791411995887756,0.4153873026371002,0.29468125104904175,0.08812816441059113,0.019083615392446518,-0.10093891620635986,-0.28861066699028015,0.19589023292064667,0.1382881999015808,-0.0069892373867332935,0.22838810086250305,-0.3702792525291443,-0.04751626402139664,-0.12038697302341461,-0.25790372490882874,-0.014687747694551945,-0.03391018882393837,-0.21395495533943176,0.2886020541191101,-0.3036395013332367,0.47291383147239685,0.08032094687223434,-0.2512931525707245,0.28143441677093506,-0.1637280136346817,0.3880985677242279,-0.1806122064590454,0.2729792594909668,0.40109530091285706,-0.20328037440776825,0.06389249861240387,-0.252935528755188,0.15350505709648132,0.3542768657207489,0.11585686355829239,-0.44827380776405334,0.028793450444936752,0.08712228387594223,0.30389365553855896,0.1423337608575821,0.1387476623058319,0.17095647752285004,-0.29250863194465637,-0.023989832028746605,0.07524178922176361,-0.19358864426612854,-0.19964027404785156,0.23304352164268494,0.3641166687011719,0.3734387159347534,0.19344428181648254,0.08434898406267166,-0.15752944350242615,-0.3844849467277527,0.05974402651190758,0.04391077160835266,-0.18793785572052002,-0.2837179899215698,-0.033832140266895294,0.18272314965724945,-0.35194745659828186,-0.0990285575389862,-0.12852108478546143,0.22373642027378082,-0.2991817593574524,-0.11455005407333374,-0.26414695382118225,0.2129330039024353,-0.16105812788009644,-0.05688822269439697,-0.3744339942932129,0.2110697627067566,0.025547850877046585,0.12923066318035126,-0.358239084482193,0.298382967710495,-0.33890408277511597,-0.04677719250321388,0.3476150929927826,-0.18685543537139893,-0.20416128635406494,-0.0832989364862442,-0.3501589894294739,0.12327242642641068,-0.4901409447193146,0.08024966716766357,-0.0401703380048275,0.1811680644750595,0.06551556289196014
toad,-0.13000571727752686,0.035464104264974594,0.5206358432769775,0.05967647209763527,0.6209197044372559,0.04352092742919922,0.2749449610710144,-0.017764024436473846,-0.14378595352172852,-0.148405522108078,-0.1908074915409088,-0.48772093653678894,0.025809571146965027,0.05257129669189453,0.19806158542633057,0.12697957456111908,-0.10854140669107437,-0.8831052184104919,0.2972383201122284,0.26897308230400085,-0.03760282322764397,-0.20749518275260925,0.4253099858760834,0.337459921836853,-0.3310946524143219,0.5587359666824341,0.01645330898463726,0.04014896601438522,0.47608235478401184,-0.11671765893697739,0.26208174228668213,0.01696065627038479,0.14901691675186157,-0.6036338210105896,-0.6100868582725525,-0.007839385420084,-0.5181593894958496,0.04010285437107086,-0.3264622986316681,0.20564068853855133,0.350995272397995,0.2296142727136612,-0.18630823493003845,0.07179680466651917,-0.14541350305080414,0.21998384594917297,0.2222771942615509,0.23095843195915222,-0.16559647023677826,-0.5325537323951721,-0.581324577331543,-0.47874215245246887,-0.007748062256723642,0.03837411850690842,0.17848899960517883,0.11753486841917038,0.3777492940425873,-0.005567096173763275,-0.2712242603302002,0.12542060017585754,0.68051677942276,0.11953938752412796,0.18520890176296234,0.007380410563200712,0.2435813844203949,-0.10528667271137238,-0.11625612527132034,-0.027331126853823662,-0.36348697543144226,-0.39778029918670654,-0.014529680833220482,-0.08097144961357117,-0.50727379322052,0.41055312752723694,-0.6123380064964294,0.1411026567220688,-0.4905625879764557,0.018292568624019623,-0.0012966131325811148,-0.1111922562122345,0.48696789145469666,-0.4079638719558716,-0.5952231287956238,-0.47759169340133667,-0.4510292410850525,-0.2652537226676941,-0.7405242323875427,0.33103862404823303,0.12678448855876923,-0.3050474524497986,-0.09245549887418747,-0.14662398397922516,-0.2548844516277313,-0.2744385898113251,0.03874840959906578,0.3370211720466614,0.025583751499652863,0.21093358099460602,-0.040959734469652176,0.043361008167266846,-0.08078399300575256,0.14570169150829315,-0.12586267292499542,0.006413047201931477,0.1577262282371521,0.09941130131483078,-0.4696006774902344,-0.05714307725429535,0.3449401557445526,-0.12359569221735,-0.2564042806625366,-0.4604673683643341,0.08141112327575684,3.6664106301032007e-4,0.3992120027542114,-0.07339301705360413,0.13459964096546173,0.28996214270591736,0.35997578501701355,0.42652031779289246,0.32755303382873535,-0.04223515838384628,-0.2781420648097992,-0.30885088443756104,-0.49132487177848816,-0.07155845314264297,-0.1383204311132431,0.33102476596832275,-0.4972604215145111,-0.5852959752082825,-0.008442902937531471,0.03193046897649765,0.0763671025633812,-0.3862099051475525,0.10810349881649017,-0.12669086456298828,0.667955219745636,-0.16962003707885742,-0.5008171796798706,0.12991684675216675,0.13987530767917633,0.42006662487983704,0.023182567209005356,-0.36859363317489624,-0.39179274439811707,0.916456937789917,0.012523891404271126,-0.29341962933540344,0.24610526859760284,0.2522708773612976,0.3036405146121979,-0.11543811112642288,-0.01808180846273899,0.17387402057647705,-0.27139168977737427,-0.2620258331298828,0.045979324728250504,0.24099907279014587,-0.4901365339756012,-0.7302958965301514,-0.09726076573133469,-0.18083645403385162,0.15275026857852936,0.5573360323905945,-0.26853176951408386,0.0903695747256279,-0.5638926029205322,-0.12081032246351242,0.02681700885295868,-0.265419065952301,0.12821047008037567,0.05289182439446449,-0.5398485064506531,-0.443928062915802,0.11432007700204849,0.37572917342185974,0.40565383434295654,-0.1298460215330124,-0.34119486808776855,-0.325409859418869,-0.2754583954811096,0.1304572969675064,-0.14404061436653137,0.6823618412017822,-0.19540010392665863,0.30137860774993896,0.30875372886657715,0.3474162220954895,0.10233360528945923,-0.13378101587295532,0.35164305567741394,0.04358112812042236,0.020670009776949883,0.15546423196792603,0.42647314071655273,0.5632412433624268,-0.18664906919002533,-0.14028683304786682,-0.5505359172821045,-0.09970247745513916,-0.19809435307979584,-0.25936585664749146,0.41054296493530273,-0.5124995708465576,0.27158060669898987,0.08604820817708969,-0.19369171559810638,0.7303376197814941,-0.2615724802017212,-0.3152804374694824,0.35126379132270813,0.458898663520813,-0.4581146538257599,0.1632363498210907,0.38251617550849915,-0.3133024275302887,-0.12035475671291351,0.10117246955633163,0.36328762769699097,-0.4467214345932007,-0.06638585031032562,-0.43285274505615234,-0.05723186209797859,-0.31109315156936646,0.05394962802529335,-0.7501904964447021,0.5689729452133179,0.11510849744081497,0.08841143548488617,-0.19744972884655,0.15906119346618652,-0.8190895318984985,-0.7036557197570801,-0.5326459407806396,0.0026449300348758698,-0.05800508335232735,-0.037403758615255356,-0.2586142122745514,-0.017917953431606293,0.07350342720746994,0.3220215439796448,-0.18786196410655975,-0.13365548849105835,0.47167474031448364,0.33669334650039673,-0.1101282387971878,-0.13880197703838348,0.43997257947921753,0.14985032379627228,0.04281878471374512,-0.10787206143140793,-0.07858512550592422,-0.2468055635690689,-0.31579384207725525,0.16657507419586182,0.04607910290360451,0.3425465524196625,0.3723379969596863,-0.049296919256448746,-0.29278284311294556,0.28544291853904724,0.029687924310564995,0.1765160858631134,-0.2467244416475296,-0.07905279099941254,-0.39174726605415344,0.19302614033222198,-0.8545697331428528,0.39585715532302856,0.49221542477607727,0.2251986563205719,-0.2732276916503906,-0.4871631860733032,0.3256986439228058,-0.8137292861938477,-0.2509106993675232,0.08376992493867874,-0.21405111253261566,0.26429787278175354,-0.0835752859711647,-0.41656842827796936,-0.0821976512670517,0.3264739215373993,-0.05252458155155182,0.20220398902893066,0.1468520611524582,0.6680840849876404,0.02620532549917698,0.3832104802131653,-0.44270822405815125,0.3690473437309265,0.2063184380531311,0.10396488755941391,0.02498326264321804,-0.022218450903892517,0.2196151167154312,-0.5400777459144592,-0.16453677415847778,-0.31532594561576843,0.08980459719896317
round,0.36444950103759766,0.2236739844083786,0.07471537590026855,-0.1681971698999405,0.1323888748884201,-0.051297321915626526,-0.23132146894931793,0.061410367488861084,-0.02144063077867031,0.6326379776000977,-0.11813849955797195,-0.3632093071937561,-0.07500925660133362,-0.18330904841423035,-0.0986909344792366,0.18506856262683868,0.23770536482334137,-0.13893303275108337,-0.019681131467223167,-0.010037473402917385,0.05525626242160797,-0.008358187042176723,-0.09342990070581436,0.3485763967037201,-0.552039384841919,-0.16637824475765228,0.2871950566768646,-0.16735394299030304,0.06053558364510536,-0.2621031105518341,-0.2727048397064209,0.058022044599056244,0.04373931139707565,0.10960319638252258,-0.1698773205280304,-0.22997502982616425,-0.060656119138002396,-0.6796234846115112,-0.2659871280193329,0.005715223029255867,-0.05651601403951645,-0.1836767941713333,0.3048388361930847,0.28057825565338135,-0.17349714040756226,-0.07579842209815979,-0.04462532699108124,0.2039947658777237,0.027681978419423103,0.0855376273393631,-0.31580716371536255,-0.3118487298488617,-0.24340218305587769,0.4303866922855377,0.24587872624397278,0.25518131256103516,0.12783455848693848,0.67055743932724,-0.002576278056949377,-0.041400566697120667,-0.3353082239627838,0.08787143975496292,-0.39109498262405396,-0.01646042987704277,0.3256949186325073,-0.3158300817012787,0.014833261258900166,-0.596662700176239,-0.24573320150375366,0.30550912022590637,0.5854828953742981,0.07883516699075699,-0.22077319025993347,0.08805147558450699,-0.04930413141846657,-0.29290685057640076,-0.23103322088718414,0.35882556438446045,0.14389050006866455,0.1891879290342331,0.11488932371139526,-0.08060385286808014,0.24160480499267578,-0.255367636680603,0.012609443627297878,-0.11921979486942291,0.07624503970146179,-0.2366051971912384,0.006405808497220278,-0.37233251333236694,-0.13783219456672668,-0.2808353900909424,-0.24560979008674622,0.059053439646959305,0.1045595332980156,-0.05020494386553764,-0.016981342807412148,0.11122684180736542,0.23430714011192322,0.1395936757326126,0.4605407416820526,0.5924717783927917,-0.39381685853004456,-0.28460434079170227,0.5997335314750671,-0.009367179125547409,-0.25158804655075073,-0.217112198472023,0.25082218647003174,-0.30911529064178467,-0.2426161766052246,0.4133581519126892,0.20526480674743652,0.1003708690404892,-0.06489337235689163,0.15407928824424744,0.5148283839225769,0.010380586609244347,-0.30634841322898865,6.245299591682851e-4,-0.11171344667673111,-0.3468802571296692,0.35420703887939453,-0.04789045453071594,0.2838803827762604,-0.38837653398513794,-0.0017185460310429335,0.11910906434059143,-0.1454199254512787,-0.27744928002357483,-0.10378601402044296,-0.219014510512352,0.20536227524280548,-0.09831985831260681,-0.45350757241249084,0.5342199802398682,-0.29993703961372375,0.02259674295783043,0.039074838161468506,0.06636162847280502,0.10894337296485901,0.037080347537994385,-0.14736780524253845,-0.24952448904514313,-0.13784627616405487,0.4544979929924011,-0.22843226790428162,0.2636915445327759,-0.017284898087382317,-0.022648213431239128,-0.3200152814388275,0.4735865294933319,-0.11995689570903778,0.15731368958950043,-0.5312667489051819,0.29313063621520996,0.17370861768722534,-0.35553663969039917,0.0415361225605011,-0.12863348424434662,0.29090383648872375,0.3001117706298828,0.0804964229464531,0.2016783207654953,-0.09371022135019302,0.4017396867275238,-0.020851703360676765,-0.05400476232171059,0.8482213616371155,-0.04101581498980522,0.11515757441520691,-0.03672998026013374,-0.2921934127807617,0.11413154751062393,0.05685329809784889,-0.28071656823158264,-0.5117710828781128,0.4373176097869873,-0.4842848777770996,0.008865260519087315,-0.11895642429590225,0.18382242321968079,-0.10309027135372162,-0.14442221820354462,0.10289479047060013,-0.07533160597085953,0.4687480926513672,-0.4677264094352722,0.2743181586265564,0.057273201644420624,-0.3997010886669159,-0.10966000705957413,-0.43346264958381653,0.44710853695869446,0.06654924154281616,0.02361477166414261,0.1674824208021164,0.07734903693199158,-0.26087555289268494,-0.19323043525218964,0.060191862285137177,-0.5688138604164124,-0.4140244424343109,-0.23380988836288452,0.03501349687576294,-0.036389172077178955,0.13085663318634033,-0.036890659481287,-0.22074930369853973,0.10292810201644897,0.16697387397289276,0.6627949476242065,-0.27862080931663513,-0.21070782840251923,-0.2207610309123993,0.4518103003501892,0.5127046704292297,-0.44402506947517395,0.6639862656593323,0.2347295880317688,-0.12168396264314651,-0.01634105108678341,-0.16773660480976105,-0.19111648201942444,-0.21859271824359894,0.27132561802864075,0.3048934042453766,-0.338679701089859,0.08648008853197098,0.0247669517993927,0.27973079681396484,0.14822928607463837,-0.4647552967071533,-0.07205197215080261,-0.12647877633571625,-0.2606426179409027,-0.307683527469635,0.2131814956665039,-0.13235069811344147,-0.36697322130203247,-0.3507663607597351,0.15224556624889374,0.3969937562942505,0.3577704429626465,-0.17341382801532745,-0.1811152845621109,-0.5154521465301514,0.05523659288883209,-0.31914421916007996,-0.03024737350642681,0.13576561212539673,-0.055513765662908554,0.3099900186061859,-0.2020283192396164,0.48119160532951355,-0.5215033292770386,-0.2959884703159332,-0.2547716498374939,0.34206971526145935,0.23168827593326569,0.18493814766407013,0.655186653137207,0.5256034731864929,0.1786331832408905,-0.3042030930519104,0.11534187197685242,0.16626805067062378,-5.991554353386164e-4,0.7576546669006348,-0.23013246059417725,-0.14985939860343933,0.21062040328979492,0.17000043392181396,0.253438800573349,-0.4144493043422699,-0.08845420926809311,0.15687790513038635,-0.4564335346221924,-0.2932981550693512,-0.6582757234573364,0.06702709197998047,-0.09913580119609833,0.2531246542930603,-0.6073805093765259,0.038922347128391266,0.0831366628408432,0.21434518694877625,-0.0987916812300682,0.07148014008998871,0.2958408296108246,0.1374509483575821,-0.08908204734325409,0.07028007507324219,-0.0019110345747321844,0.20494212210178375,0.49553975462913513,-0.32373642921447754,-0.2534123361110687,1.0290629863739014,0.3781275153160095
frog,-0.0021981552708894014,-0.2013336420059204,0.511012852191925,0.005468080285936594,0.3821583688259125,-0.18675962090492249,0.024842046201229095,-0.08984909951686859,-0.10440022498369217,-0.06248142942786217,-0.635828971862793,-0.5881285667419434,-0.08292200416326523,-0.006315495353192091,0.019023507833480835,-0.038490332663059235,-0.10734962671995163,-0.6348978281021118,0.08166632056236267,0.40373584628105164,-0.10868619382381439,-0.14396201074123383,0.2285742610692978,0.2556924819946289,0.06901173293590546,0.5007681846618652,0.032565269619226456,-0.3199443817138672,0.454444944858551,-0.26734650135040283,0.06099661439657211,0.5018836259841919,0.30137625336647034,-0.49285176396369934,-0.4026013910770416,0.13166144490242004,-0.08069153130054474,0.22310161590576172,-0.47584110498428345,0.1975874900817871,0.32207751274108887,0.30693310499191284,0.08284982293844223,-0.11509402841329575,0.09671768546104431,0.3594014644622803,0.13398610055446625,0.2089095264673233,-0.1212579607963562,-0.4192470610141754,-0.3510628640651703,-0.4346926212310791,-0.17260783910751343,-0.12408017367124557,0.26084133982658386,0.40303635597229004,0.14524419605731964,-0.062320392578840256,-0.31456395983695984,0.461160808801651,0.6843459010124207,0.22350285947322845,0.2996070981025696,-0.12051727622747421,0.07237332314252853,0.07892050594091415,0.3325669765472412,0.07978861778974533,-0.36857926845550537,-0.528662383556366,0.2230270355939865,-0.13376951217651367,-0.15155448019504547,0.558976948261261,-0.32920387387275696,0.0352170467376709,-0.15061254799365997,-0.00853967946022749,-0.0820452943444252,-0.17036783695220947,0.3038402199745178,-0.21477559208869934,-0.47610795497894287,-0.22342845797538757,-0.18574121594429016,-0.09994865208864212,-0.47909247875213623,0.014189625158905983,0.2784810960292816,-0.21308813989162445,0.3169688284397125,-0.06569612771272659,-0.17702479660511017,-0.3957628607749939,0.04995514452457428,0.22638259828090668,0.28578680753707886,0.48923221230506897,0.005108974874019623,-0.27501392364501953,0.03152625262737274,0.23206698894500732,-0.020562252029776573,-0.13859471678733826,0.3474970757961273,0.48171430826187134,-0.5387227535247803,0.02475207857787609,0.2865898609161377,-0.053228072822093964,-0.25900378823280334,-0.22597719728946686,-0.061214055866003036,-0.08519537001848221,0.26436883211135864,0.25035303831100464,0.021603453904390335,0.23547926545143127,0.18122534453868866,0.4503011703491211,0.6720200777053833,0.20307974517345428,-0.22610387206077576,-0.40772271156311035,-0.19042934477329254,0.03526853397488594,-0.2340165227651596,0.12465378642082214,-0.34569352865219116,-0.45225122570991516,0.08460816740989685,0.04521939158439636,0.13869275152683258,-0.35804927349090576,0.17193597555160522,-0.2294372022151947,0.6558223962783813,-0.08536362648010254,-0.2826527953147888,-0.1000644713640213,0.042808834463357925,0.17604371905326843,0.15356408059597015,-0.25798457860946655,-0.39160624146461487,0.7270554304122925,-0.007069495040923357,-0.3489460051059723,0.2791613042354584,0.366210013628006,0.19592390954494476,-0.38931092619895935,-0.16359469294548035,0.33128663897514343,-0.1507660448551178,-0.26899680495262146,-0.03492407873272896,0.321778804063797,-0.48657041788101196,-0.5303589701652527,-0.17941102385520935,-0.3999558389186859,0.1451295018196106,0.49874064326286316,-0.12720339000225067,-0.05226021260023117,-0.7482343316078186,-1.394432911183685e-4,0.07715489715337753,-0.2803100347518921,0.1778622567653656,0.12320718169212341,-0.45034483075141907,-0.4206646680831909,-0.1094975695014,0.3615477383136749,0.2339383065700531,-0.07215283066034317,-0.16881237924098969,-0.08768235146999359,-0.2067010998725891,0.28122711181640625,-0.25371450185775757,0.6519765257835388,-0.4143194556236267,0.26237472891807556,0.4986606240272522,0.1662200391292572,-0.0062628393061459064,-0.0927518680691719,0.3054473400115967,0.032327115535736084,0.26597943902015686,0.06626366823911667,0.6040588617324829,0.3381086587905884,-0.358864426612854,-0.3599863648414612,-0.5245108604431152,0.0894877016544342,-0.1334894299507141,-0.23570901155471802,0.480876624584198,-0.5884687304496765,0.12583059072494507,-0.2244747132062912,-0.043068815022706985,0.7009986639022827,-0.19418199360370636,-0.05517478659749031,0.34007343649864197,0.5517588257789612,-0.23831807076931,0.1467897742986679,0.2494136542081833,-0.4112710654735565,-0.09967243671417236,0.22348825633525848,0.4239398241043091,-0.09349245578050613,-0.05964244529604912,-0.22501474618911743,0.14158712327480316,-0.2357952892780304,0.1172788217663765,-0.9405351877212524,0.44810259342193604,0.15863226354122162,0.5231828093528748,-0.3494832515716553,0.054183121770620346,-0.6071615219116211,-0.6958628296852112,-0.40261173248291016,0.0892212986946106,0.022124063223600388,-0.03694272041320801,-0.3046395480632782,0.012172626331448555,-0.014397731982171535,-0.11610613763332367,-0.3192763924598694,-0.12172751128673553,0.3968175947666168,0.14765283465385437,-0.04648100957274437,-0.310160756111145,0.28081876039505005,0.15927332639694214,0.08895993232727051,-0.02364574745297432,0.023829776793718338,-0.29639729857444763,-0.39526885747909546,-0.09333585947751999,0.2384873777627945,0.07790738344192505,0.34126946330070496,0.027194904163479805,-0.052325110882520676,0.1382160633802414,0.2613331973552704,-0.14054691791534424,-0.2031484991312027,0.01785760559141636,-0.26624318957328796,0.047018520534038544,-0.8648746013641357,0.3845770061016083,0.42376530170440674,0.2129490226507187,-0.3467240333557129,-0.4862763285636902,0.13732796907424927,-0.5063782930374146,-0.1825902909040451,-0.06399352848529816,-0.24818705022335052,0.2557729184627533,-0.11370301246643066,-0.2837265729904175,-0.05278688669204712,0.41356855630874634,-0.051495276391506195,0.41563522815704346,0.4338569939136505,0.4663982093334198,-0.3620021641254425,0.09493797272443771,-0.5119431018829346,0.2907296121120453,-0.07469204813241959,0.16772997379302979,0.17517879605293274,0.1335092931985855,0.25925925374031067,-0.47263655066490173,0.012570114806294441,-0.43348556756973267,0.07551129162311554
feet,0.28384917974472046,0.12624947726726532,0.28487351536750793,0.1313021332025528,-0.09503967314958572,-0.5107812285423279,-0.577066957950592,0.5528339743614197,0.13102954626083374,-0.44828760623931885,-0.36631718277931213,-0.04545722156763077,-3.076075518038124e-4,-0.0027446451131254435,-0.2342030256986618,0.04050209000706673,-0.31101030111312866,-0.35501474142074585,0.14520667493343353,-0.2810155153274536,-0.46572643518447876,-0.0630466639995575,-0.04172639548778534,0.3812127709388733,-0.41310128569602966,-0.5464374423027039,0.2281416952610016,-0.1142139881849289,0.10643681138753891,-0.3332204222679138,-0.3708009719848633,-0.2052667737007141,-0.053973544389009476,-0.3375079929828644,-0.24602007865905762,0.12472577393054962,0.04370453208684921,-0.35748404264450073,-0.37853333353996277,-0.07898179441690445,-0.2994914948940277,-0.11216098070144653,-0.3163345456123352,0.47684213519096375,0.12016415596008301,0.5471156239509583,0.018591800704598427,0.3714159429073334,0.18859641253948212,-0.12615258991718292,0.4339519441127777,-0.5366516709327698,-0.7335226535797119,0.2083197981119156,-0.2031715363264084,0.7617899179458618,0.4535413682460785,0.5166441798210144,0.4692387282848358,0.5202453136444092,-0.3325149714946747,0.019312402233481407,-0.002295728540048003,-0.3235059380531311,0.2098955512046814,-0.14183880388736725,0.19465087354183197,-0.7735466957092285,-0.1562749594449997,-0.22534486651420593,-0.5074288845062256,0.21010591089725494,-0.27602073550224304,-0.025309044867753983,0.2982805371284485,-0.12806683778762817,0.1177774965763092,-0.2768588662147522,0.19934439659118652,-0.126381516456604,0.0215314868837595,-0.5640509724617004,-0.20443540811538696,-0.06139633432030678,-0.04263126850128174,0.32987087965011597,-0.21521055698394775,-0.24895279109477997,0.17354437708854675,0.23994968831539154,-0.3654358983039856,0.17642904818058014,0.4296605885028839,-0.4529859125614166,-0.4448903501033783,-0.12731510400772095,0.28930771350860596,-0.3117419481277466,0.11579249799251556,-0.18476763367652893,-0.13697245717048645,-0.26555192470550537,-0.44977518916130066,-0.4137209951877594,0.3682084381580353,0.10943561047315598,-0.08631405979394913,-0.39993196725845337,-0.038825999945402145,-0.16776961088180542,0.4215984046459198,-0.04180043190717697,-0.11688324809074402,0.12801988422870636,-0.3379070460796356,-0.12146028876304626,-0.31806814670562744,0.34663525223731995,-0.10649167001247406,-0.016376595944166183,0.09645872563123703,-0.17997699975967407,0.14864538609981537,0.18821468949317932,0.33049216866493225,-0.4552236497402191,0.6091994047164917,-0.05653337761759758,0.1819750964641571,-0.013300171121954918,-0.007859810255467892,-0.21546664834022522,-0.1698872447013855,0.35127565264701843,-0.3144489824771881,0.2795732617378235,0.6334203481674194,-0.33766019344329834,0.0370800718665123,0.3458196222782135,-0.3748140037059784,0.12760159373283386,-0.09433707594871521,-0.44274652004241943,0.04228478670120239,-0.23021668195724487,0.35656169056892395,0.0012008409248664975,0.43043017387390137,0.006916736252605915,0.07210267335176468,-0.22270403802394867,0.28834131360054016,0.16483129560947418,-0.07441781461238861,0.12979410588741302,0.1623222827911377,0.5231542587280273,0.47429409623146057,-0.09028387069702148,-0.35468798875808716,-0.18129748106002808,-0.07123757153749466,-0.04431970790028572,-0.154501810669899,-0.46045759320259094,0.16921715438365936,0.39171749353408813,0.16200058162212372,-0.051769766956567764,-0.14021706581115723,0.5324447154998779,-0.18890945613384247,0.08381301164627075,0.015748146921396255,-0.31365278363227844,0.08840284496545792,0.49726900458335876,-0.3071136176586151,-0.3818722069263458,0.508522629737854,0.47792384028434753,0.11803648620843887,-0.20839837193489075,-0.15580099821090698,0.43564996123313904,0.14720743894577026,0.1029631718993187,-0.12118928879499435,-0.20031225681304932,-0.23122982680797577,-0.021353181451559067,-0.4194873869419098,0.26949867606163025,-0.11903916299343109,-0.5815659761428833,0.17744697630405426,0.03245588764548302,-0.24361589550971985,-0.4287205636501312,0.2901169955730438,0.021912826225161552,-0.34032556414604187,-0.30144521594047546,0.046843428164720535,-0.056251026690006256,-0.04328717663884163,0.4117116332054138,-0.19826672971248627,0.016943510621786118,0.2978566586971283,0.19247972965240479,-0.740044355392456,0.1308622658252716,-0.3112267553806305,-0.4931836724281311,0.11849522590637207,0.026277722790837288,0.3251570165157318,0.3412488102912903,0.3406587839126587,-0.3340664803981781,0.35583463311195374,-0.6286100745201111,-0.3007020056247711,-0.3883626163005829,0.020017191767692566,0.33144229650497437,-0.14197638630867004,0.5749039053916931,-0.3108890950679779,0.19280532002449036,-0.06005430221557617,-0.21894210577011108,0.03621501475572586,0.010815123096108437,0.34408628940582275,0.473353773355484,0.27455902099609375,0.17522616684436798,0.10351923853158951,-0.1710103303194046,-0.17506404221057892,0.38290005922317505,-0.2673625349998474,-0.11359256505966187,0.2275390774011612,-0.5797759294509888,0.05789058282971382,-0.2128748744726181,0.21955251693725586,-0.37236037850379944,0.05435894429683685,-0.16869594156742096,-0.19070729613304138,-0.17628389596939087,-0.09718400985002518,0.3624672591686249,0.03163263946771622,0.5030435919761658,0.09388912469148636,-0.36119720339775085,0.10105936974287033,0.3026464879512787,-0.05510466918349266,-0.2302851527929306,-0.1958649754524231,-0.7723063230514526,-0.1541547179222107,-0.1591496765613556,0.7950188517570496,-0.5879141688346863,-0.02127317525446415,0.28798961639404297,-0.3023312985897064,0.11420650035142899,-0.32704073190689087,-0.6865801215171814,0.29717040061950684,-0.4116031229496002,-0.35336095094680786,-0.26375406980514526,0.3541080951690674,0.39991244673728943,0.14684833586215973,0.17388257384300232,0.3041388690471649,-0.017758654430508614,-0.11193150281906128,-0.12403258681297302,0.1559905707836151,-0.053585175424814224,-0.29521864652633667,0.3476267457008362,-0.04874648153781891,-0.2771974503993988,-0.04218599572777748,0.11835729330778122,0.32436951994895935,-0.19831866025924683
nose,0.3590872287750244,-0.2788064479827881,-0.40555858612060547,0.0036950455978512764,0.0751592218875885,-0.21687684953212738,0.295331209897995,0.11311697959899902,-0.5474463105201721,0.36358436942100525,-0.14772911369800568,-0.1645357459783554,-0.05197076126933098,-0.3888266086578369,-0.2207356095314026,0.06268630176782608,-0.11529418081045151,-0.31775110960006714,0.32456767559051514,-0.12447026371955872,0.09672265499830246,0.1248444989323616,0.13789398968219757,0.1435742825269699,0.1549554169178009,0.07629135996103287,0.6955035924911499,-0.4505319595336914,-0.13161373138427734,0.142653688788414,-0.126306414604187,-0.05285179615020752,-0.8565449118614197,0.16633760929107666,-0.07748457044363022,0.17471815645694733,-0.03649945184588432,-0.3856751024723053,-0.12347080558538437,-0.3061912953853607,-0.08668076992034912,0.2564099431037903,0.13490353524684906,0.026017852127552032,0.2986495792865753,0.14432945847511292,-0.18355748057365417,0.06103569269180298,-0.057803019881248474,0.09492824971675873,-0.4045190215110779,-0.22350753843784332,-0.017372729256749153,-0.02985912188887596,-0.03192702308297157,0.19867518544197083,0.17485463619232178,0.4843106269836426,0.19141249358654022,0.20455755293369293,0.11344493180513382,0.17809471487998962,0.15805736184120178,-0.054323360323905945,-0.07650724798440933,0.3913270831108093,-0.201948881149292,-0.41396158933639526,0.3461427092552185,0.6872279644012451,-0.2604912519454956,0.34655532240867615,-0.2616182267665863,0.045857544988393784,-0.1799633800983429,0.2185581624507904,0.40023064613342285,-0.28030237555503845,-0.12327662110328674,-0.36072006821632385,0.2938735783100128,-0.26382625102996826,-0.49239638447761536,-0.020559821277856827,0.2794840931892395,-0.3633534014225006,-0.08419881761074066,0.17651501297950745,-0.1125371977686882,0.010042511858046055,0.24745354056358337,-0.0976140946149826,-0.20969972014427185,-0.10410302877426147,0.06054292991757393,0.07043042033910751,-0.0797591358423233,0.017332712188363075,-0.1839936077594757,0.3051530718803406,-0.08891815692186356,0.11397478729486465,-0.19768400490283966,-0.4897574782371521,-0.031553566455841064,-0.4422961175441742,0.046645402908325195,-0.07739633321762085,0.15288764238357544,-0.650970458984375,0.05414481461048126,0.09181849658489227,-0.3474583923816681,0.39594796299934387,0.053685687482357025,0.11837799102067947,-0.14805373549461365,-0.41151779890060425,0.11616561561822891,0.2039307951927185,-0.3397066593170166,-0.11974404007196426,0.07548485696315765,0.0816122516989708,-0.19846493005752563,-0.2513502836227417,-0.011660320684313774,-0.17090697586536407,0.03883940726518631,0.025228705257177353,0.20947054028511047,0.703319251537323,0.41536733508110046,-0.38445860147476196,-0.01026234868913889,-0.025765294209122658,0.36307764053344727,-0.4210890233516693,-0.028972078114748,-0.04879197105765343,0.569252610206604,-0.34730976819992065,-0.1655607521533966,-0.09211381524801254,-0.1482143998146057,0.3283560276031494,-0.7417992949485779,0.16967420279979706,-0.0010625344002619386,-0.10866064578294754,-0.3035174012184143,0.3262123763561249,-0.06589987874031067,0.40114539861679077,-0.43836089968681335,0.017772633582353592,-0.42303913831710815,0.2526295483112335,0.4505155384540558,-0.09425979107618332,0.1069672629237175,-0.28896981477737427,-0.024751385673880577,0.23175498843193054,-0.20341342687606812,0.12916113436222076,0.237843319773674,0.11448737978935242,0.48409658670425415,0.4528236985206604,0.5015705823898315,-0.006916435901075602,-0.009005875326693058,-0.3494042158126831,0.0035453487653285265,0.06550619006156921,-0.1782284379005432,0.31522336602211,0.3810790479183197,-0.31898200511932373,0.040388286113739014,-0.032036006450653076,0.02955247461795807,0.06114015355706215,-0.2710440158843994,-0.21587269008159637,-0.058100804686546326,-0.46192988753318787,0.41297221183776855,0.18350446224212646,-0.06980811059474945,-0.3111450672149658,0.5078290104866028,-0.2194974273443222,0.40039005875587463,-0.1332705020904541,0.0908079668879509,0.4350335896015167,0.2867959439754486,-0.12835370004177094,-0.06818120181560516,0.4778915345668793,-0.4176570773124695,0.011543910019099712,0.09542523324489594,-0.15142028033733368,0.12445104122161865,-0.317897766828537,-0.05757497251033783,-0.032564908266067505,-0.0552712120115757,0.16495896875858307,-0.04465571790933609,0.5039888620376587,-0.42147916555404663,-0.513440728187561,0.02083490416407585,-0.35873645544052124,0.46867597103118896,-0.07308050245046616,0.1465892344713211,-0.35360807180404663,-0.2241862416267395,-0.36459437012672424,0.2528935670852661,-0.30966436862945557,0.06613368541002274,-0.14029428362846375,0.23508617281913757,0.3406309485435486,0.15034176409244537,0.006071326322853565,0.22365425527095795,-0.5493437647819519,-0.0029109783936291933,0.24285446107387543,0.47328266501426697,-0.46409446001052856,0.8614103198051453,-0.020191878080368042,-0.2659624516963959,0.1386067271232605,-0.04837045073509216,-0.3940095901489258,-0.49919092655181885,-0.18357595801353455,-0.14197738468647003,0.28890129923820496,-0.002669472945854068,0.09250029176473618,-0.39292919635772705,-0.33702605962753296,-0.08112330734729767,0.5266766548156738,-0.07614239305257797,0.16145136952400208,-2.4955265689641237e-4,-0.5659260749816895,0.21804484724998474,0.28194043040275574,0.01825266145169735,-0.38498884439468384,0.061744194477796555,0.0843767300248146,-0.28024232387542725,-0.32679668068885803,0.3398318886756897,-0.602897047996521,-0.16527396440505981,0.15099965035915375,-0.35632839798927307,-0.0332963727414608,0.012148763984441757,-0.21632137894630432,0.010075094178318977,-0.2291508913040161,0.5238703489303589,-0.04418119788169861,-0.2205410897731781,0.022005636245012283,-0.1373637467622757,-0.26491397619247437,0.04059464856982231,0.3089839220046997,0.1756502389907837,-0.3953591287136078,0.1623087376356125,0.15046679973602295,0.6857125163078308,-0.23262245953083038,0.20462758839130402,0.11795616894960403,-0.26462143659591675,0.2538473308086395,0.3761693239212036,0.30666232109069824,-0.00879583228379488,-0.5450177192687988,0.1137700229883194,-0.3673767149448395
black,0.05895252153277397,-0.061614032834768295,0.3573398292064667,-0.44342225790023804,0.1807408481836319,-0.33387911319732666,0.15028591454029083,0.3412635922431946,-0.11020355671644211,-0.011095692403614521,0.18468646705150604,0.08031889796257019,-0.16331975162029266,0.12241584062576294,-0.1623799204826355,-0.1630137711763382,0.12284187972545624,-0.6036078929901123,-0.17273283004760742,0.3468250632286072,-0.16368450224399567,-0.05427670106291771,0.22568190097808838,-0.12174136936664581,-0.18233005702495575,-0.07651198655366898,-0.08900970965623856,-0.08049285411834717,0.27590346336364746,0.031256552785634995,-0.08955196291208267,0.18978025019168854,-0.06768249720335007,0.5530845522880554,-0.06318927556276321,-0.034813832491636276,0.3545849025249481,0.12250269949436188,0.19503836333751678,-0.33036983013153076,-0.3105781674385071,-0.03808026760816574,-0.265421599149704,0.2508664131164551,-0.029092803597450256,0.2842366397380829,-0.20858819782733917,-0.21053409576416016,-0.15573416650295258,-0.012532321736216545,0.18741297721862793,-0.12168107181787491,-0.2348911017179489,-0.1293969303369522,0.3498852849006653,-0.23501500487327576,-0.2379172444343567,0.270793080329895,0.09298951923847198,-0.011766810901463032,-0.40583282709121704,0.39563560485839844,0.12193750590085983,-0.08506956696510315,-0.18449603021144867,-0.10229633748531342,-0.29021719098091125,-0.17710676789283752,0.11132500320672989,0.289696604013443,-0.14462910592556,0.07092931121587753,-0.4005073010921478,-0.08163678646087646,0.05045114830136299,-0.3418230712413788,0.37086591124534607,0.003885808866471052,-0.11563867330551147,-0.2680588662624359,0.6951979398727417,0.15556122362613678,0.12677782773971558,-0.04025958478450775,-0.0863281860947609,0.24744297564029694,0.31856247782707214,0.3595423400402069,0.2991102337837219,-0.13192157447338104,0.037667758762836456,-0.00807167962193489,0.370675653219223,0.35672032833099365,-0.26797300577163696,0.36821088194847107,0.41508910059928894,0.45929503440856934,0.08068223297595978,0.38467729091644287,-0.17272281646728516,0.06813454627990723,0.17130829393863678,-0.32433730363845825,-0.14110995829105377,-0.12653043866157532,0.38514119386672974,0.31263813376426697,0.19959427416324615,-0.009002678096294403,0.1283281147480011,0.3424921929836273,-0.376097172498703,0.3556540608406067,-0.07350330054759979,0.4702354669570923,0.16199378669261932,-0.06607230007648468,-0.09448517113924026,-0.15426002442836761,0.1129647046327591,0.24001680314540863,-0.040337976068258286,0.009164941497147083,0.3647093176841736,-0.4044373035430908,-0.36851489543914795,0.3043728470802307,-0.33253809809684753,-0.3314196467399597,0.3085130453109741,0.16776713728904724,-0.10955904424190521,-0.19679602980613708,0.10431266576051712,0.7062470316886902,0.3396501839160919,0.17970609664916992,-0.22330863773822784,0.1341547667980194,0.09196531027555466,-0.12752671539783478,-0.21787212789058685,-0.2947985529899597,-0.24435031414031982,-0.12795525789260864,0.05955727398395538,0.31879472732543945,0.17343676090240479,0.2250865399837494,0.6734214425086975,0.18221434950828552,0.5354786515235901,-0.01895402930676937,-0.3956119120121002,0.7805162072181702,-0.439109206199646,-0.3398420512676239,0.12139838188886642,0.045061878859996796,-0.12832005321979523,-0.07571187615394592,-0.1830337643623352,0.32583457231521606,0.2504591941833496,0.07988275587558746,0.1941753476858139,-0.30284491181373596,0.05185973271727562,0.28524360060691833,-0.06367555260658264,0.18163925409317017,-0.017345473170280457,-0.48367738723754883,0.48305535316467285,0.03549981862306595,-0.32096317410469055,0.0987219363451004,0.04235246032476425,-0.3686898350715637,0.10953520983457565,-0.1588425189256668,0.1461613029241562,0.20523709058761597,0.07736392319202423,-0.5915038585662842,-0.1723863184452057,-0.26209092140197754,0.06819871068000793,-0.08546291291713715,-0.08582136034965515,-0.37090182304382324,-0.19853076338768005,-0.2071397751569748,0.2541728913784027,-0.13442841172218323,0.5557680130004883,-0.3761407434940338,-0.12424763292074203,-0.13158383965492249,0.033273715525865555,-0.07305939495563507,0.3553493618965149,-0.1290740966796875,-0.06325393915176392,0.1860274225473404,-0.33243709802627563,0.050862912088632584,-0.1623600721359253,-0.05419127643108368,-0.23964819312095642,0.23851820826530457,-0.0975845605134964,0.31817445158958435,0.6952939033508301,0.06173596903681755,-0.26590195298194885,0.16385415196418762,0.1963745653629303,-0.1371324211359024,-0.0071725123561918736,-0.17549636960029602,-0.05965447053313255,0.15736731886863708,-0.011339507065713406,-0.2853347659111023,0.29737868905067444,-0.07739415019750595,0.2797269821166992,0.03881043568253517,-0.007943619042634964,-0.06336784362792969,0.05043153464794159,-0.23670364916324615,-0.01954861544072628,0.1458389163017273,-0.19877782464027405,0.08778216689825058,0.01342807523906231,0.061085108667612076,-0.11427755653858185,0.02545701526105404,0.5340800285339355,-0.2816966772079468,0.16762256622314453,0.0585959330201149,-0.2820242643356323,0.007713834755122662,0.14169932901859283,-0.14385764300823212,-0.5468561053276062,0.3108921945095062,-0.18125952780246735,-0.10110309720039368,-0.04669296368956566,0.08277427405118942,0.13728252053260803,-0.12347113341093063,-0.1375787854194641,0.12184949964284897,0.005950473248958588,0.22622045874595642,-0.02051960490643978,-0.36423972249031067,-0.07516371458768845,-0.15074582397937775,-0.17598316073417664,-0.43764424324035645,-0.03251957520842552,0.2779301106929779,0.05546475574374199,-0.6943699717521667,-0.4492805004119873,0.5067577958106995,-0.24932882189750671,-0.41722217202186584,0.12098585814237595,-0.48495879769325256,-0.40099388360977173,-0.43856319785118103,0.27589982748031616,-0.05107220262289047,-0.33258724212646484,-0.3779345154762268,0.005741503089666367,0.18382154405117035,0.003797645214945078,0.32937705516815186,-0.6033715605735779,0.1688750684261322,-0.1588716059923172,0.39528223872184753,0.036015067249536514,0.10588324815034866,-0.08481837064027786,-0.1036074161529541,-0.20714165270328522,0.13101987540721893,0.19942431151866913,-0.03805407136678696
yellow,0.028995122760534286,-0.08750516921281815,0.3592594861984253,-0.9056932926177979,-0.8050976991653442,0.12535186111927032,-0.0805094912648201,0.21405449509620667,0.19127702713012695,0.3372688591480255,-0.4643283486366272,0.11829332262277603,0.558570384979248,0.11326893419027328,-0.05196389928460121,-0.05230896547436714,-0.04470089077949524,-0.25432440638542175,-0.05835197493433952,0.5988141298294067,-0.4782808721065521,0.5549097657203674,-0.2086280733346939,0.1657055765390396,-0.16537831723690033,0.04269930720329285,-0.125146746635437,0.04638978838920593,0.17457778751850128,0.03780044987797737,-0.3514367938041687,0.362541139125824,-0.10457984358072281,0.2077057659626007,-0.0780756026506424,-0.07775361090898514,0.26310357451438904,0.06225743517279625,-0.14358067512512207,0.001398134627379477,-0.23745696246623993,0.23934003710746765,0.18925584852695465,-0.1962711066007614,0.5443816184997559,-0.5983806848526001,-0.5814651250839233,-0.6150029897689819,0.07373325526714325,0.6579888463020325,0.150934100151062,-0.017849721014499664,-0.23307131230831146,0.07229077070951462,-0.2701670527458191,-0.1718987673521042,-0.1890164017677307,0.08101344853639603,-0.39621391892433167,-0.057594288140535355,-0.42953020334243774,-0.0073201716877520084,0.0030657388269901276,-0.10654371976852417,-0.4320733845233917,-0.1716417670249939,-0.18262799084186554,0.15714532136917114,0.27699440717697144,0.350000262260437,-0.627351701259613,0.08967983722686768,-0.15209320187568665,-0.14254404604434967,0.44226086139678955,0.31989970803260803,0.49479395151138306,-0.2478538453578949,-0.19465290009975433,-0.3299316465854645,0.7378965020179749,0.21685829758644104,0.23835718631744385,-0.07231529802083969,-0.5822652578353882,0.040549248456954956,-0.1972617506980896,0.7618625164031982,-0.03525415435433388,0.2660267651081085,-0.4035482406616211,0.11570899933576584,0.42278313636779785,-0.01852349564433098,-0.046779513359069824,-0.07290953397750854,0.1693733036518097,0.6202554106712341,0.13682283461093903,0.23526398837566376,0.1888284534215927,-0.2046549767255783,0.5280613303184509,-0.00917873252183199,0.21581478416919708,0.16061551868915558,0.21944484114646912,0.020724374800920486,0.19847410917282104,-0.35784712433815,-0.015578266233205795,0.02449077181518078,-0.32228216528892517,0.01873697154223919,-0.11952484399080276,0.38789263367652893,-0.19803304970264435,0.35066962242126465,0.11125330626964569,0.05818547308444977,0.22748567163944244,0.06960981339216232,0.3876552879810333,-0.10842341929674149,0.396122008562088,-0.4527861177921295,0.047485336661338806,0.22232221066951752,0.12225765734910965,-0.46137720346450806,0.1799255907535553,-0.2240450531244278,-3.862975863739848e-4,-0.016704615205526352,-0.31016698479652405,-0.20051194727420807,0.04997003450989723,0.2359606921672821,0.05533209815621376,0.03128509968519211,-0.2539626359939575,0.23661361634731293,0.008881830610334873,-0.39797812700271606,-0.14101068675518036,-0.09960874915122986,-0.3453553318977356,0.31489887833595276,0.4182855486869812,0.13475501537322998,0.20999054610729218,0.19654439389705658,-0.13135311007499695,-0.037394218146800995,-0.1898418515920639,0.005816130433231592,0.03432541340589523,0.2475673109292984,0.4340553283691406,-0.5015547275543213,-0.11857317388057709,0.051321420818567276,-0.13841873407363892,0.28601258993148804,-0.3030341565608978,0.2761198878288269,-0.36258596181869507,-0.40690571069717407,0.06671423465013504,0.16073116660118103,-0.6776542663574219,0.06190085783600807,0.2200528085231781,-0.4972790479660034,-0.09444831311702728,-0.2181612253189087,0.05000820383429527,0.015476553700864315,0.24399922788143158,0.09877824783325195,0.1341552734375,0.16331928968429565,-0.04989903047680855,-0.3164386451244354,-0.10457829385995865,-0.004360378719866276,-0.07755163311958313,-0.20942264795303345,0.05239379405975342,0.1948491483926773,-0.4952165186405182,0.16874951124191284,0.5520634651184082,-0.27283838391304016,0.1003151461482048,0.29805251955986023,-0.2929273843765259,-0.21595947444438934,0.12253588438034058,-0.3659279942512512,-0.08657731860876083,-0.5440348982810974,-0.2161930799484253,-0.5121515989303589,0.244294211268425,-0.49553585052490234,0.25556662678718567,-0.06648197025060654,0.03446607664227486,0.3151480555534363,0.3276432156562805,-0.16881048679351807,0.3394870460033417,-0.19451113045215607,0.10003956407308578,-0.3531440496444702,0.11801500618457794,0.9154359698295593,0.3173156678676605,-0.1411169171333313,0.41184502840042114,-0.12055663764476776,-0.271814227104187,0.008423615247011185,0.1921313852071762,0.1368485391139984,0.4544227719306946,-0.022150442004203796,0.1499798595905304,0.18597333133220673,0.34688228368759155,-0.11423160880804062,-0.4259743392467499,0.4811752438545227,0.015924353152513504,0.20410993695259094,-0.5033968687057495,-0.12435363233089447,0.16345758736133575,0.09599865972995758,0.44194796681404114,-0.1776990294456482,0.16946886479854584,-0.050784166902303696,0.3322434425354004,0.061090137809515,-0.2951274514198303,-0.06485245376825333,0.40373513102531433,-0.14900243282318115,-0.17442573606967926,0.09050247818231583,-0.27797767519950867,-0.5357505679130554,0.4883623421192169,0.3585137724876404,-0.047619204968214035,0.1764591485261917,0.3015843331813812,-0.08852378278970718,0.39979347586631775,0.21100066602230072,-0.4006792902946472,-0.04115729406476021,-0.15657483041286469,-0.29104501008987427,-0.2797876000404358,-0.1834435611963272,0.042250994592905045,0.1762285977602005,0.77193683385849,-0.5372048020362854,-0.078910693526268,0.09393160045146942,-0.17783868312835693,-0.07400593906641006,0.23650407791137695,-0.0593428909778595,0.39946773648262024,0.09720848500728607,-0.19252200424671173,0.10359185934066772,-0.15169969201087952,-0.05608108639717102,0.08091860264539719,-0.22745974361896515,-0.16181805729866028,0.25651508569717407,0.05554608628153801,-0.6723067164421082,0.027855025604367256,-0.16374900937080383,-0.18930397927761078,0.37943094968795776,0.16530928015708923,0.003262745216488838,-0.10254287719726562,-0.07786830514669418,-0.09124637395143509,0.29116588830947876
white,0.18624626100063324,-0.023821599781513214,0.17271123826503754,0.007488471921533346,-0.514175295829773,-0.0485982708632946,0.007500076200813055,-0.01899162493646145,-0.11661947518587112,-0.22086390852928162,0.01546757947653532,0.2131854146718979,-0.009674997068941593,-0.10473992675542831,-0.3626883029937744,0.31430551409721375,0.029907869175076485,-0.5171512365341187,-0.06952392309904099,0.5127624869346619,-0.5315633416175842,0.44078725576400757,0.2691689133644104,0.35549643635749817,0.04203607514500618,-0.077623151242733,-0.21266192197799683,-0.01105990819633007,-0.12256461381912231,0.180107980966568,0.1401597112417221,0.21884377300739288,0.4216853976249695,0.20777280628681183,0.12602472305297852,-0.27185678482055664,-0.12343644350767136,0.1474263221025467,0.1179412305355072,-0.0949266329407692,-0.149825319647789,-0.07970751076936722,-0.12245103716850281,0.0521838553249836,0.1761040836572647,0.39179757237434387,-0.04942314699292183,-0.13164743781089783,0.07396113127470016,0.04520372301340103,0.004604509100317955,-0.14929699897766113,0.02943449839949608,-0.4290047287940979,0.13595648109912872,-0.08871185779571533,-0.21376857161521912,0.27940958738327026,0.18934719264507294,-0.5632157325744629,0.11479232460260391,-0.07485048472881317,0.22986532747745514,0.13088220357894897,-0.3150656521320343,-0.5113113522529602,-0.04069269448518753,-0.6797459721565247,0.3189845383167267,0.7818120718002319,-0.5687910318374634,0.1378197968006134,-0.056195519864559174,-0.259121835231781,0.44796285033226013,-0.2709349989891052,0.3143559694290161,-0.4343301057815552,0.4385223686695099,-0.26825615763664246,0.5008074641227722,-0.08825082331895828,0.2414807677268982,0.10823293030261993,-0.14167694747447968,-0.046462807804346085,0.40967437624931335,0.10527454316616058,0.2477242350578308,-0.14721444249153137,0.15970778465270996,-0.13580422103405,0.07456722855567932,0.10384567826986313,0.11179237067699432,0.0497199222445488,0.5811848044395447,0.3578207790851593,0.0713103637099266,0.2566441595554352,0.24275703728199005,0.5329181551933289,0.2997286021709442,-0.24904212355613708,-0.03644401207566261,0.04997067525982857,0.21186167001724243,-0.1170240268111229,0.01645125262439251,0.12006324529647827,0.008879262022674084,0.2191738784313202,-0.27152225375175476,0.365923672914505,-0.1251344382762909,0.41722461581230164,0.24916808307170868,0.1758546531200409,-0.030908819288015366,-0.10914379358291626,0.31650689244270325,0.12794484198093414,0.1549392193555832,0.19958484172821045,0.266124427318573,0.42372292280197144,-0.10794037580490112,0.1570035070180893,-0.25284475088119507,-0.006428748834878206,0.3926211893558502,0.1317475140094757,0.1642361283302307,0.4601583182811737,-0.18250027298927307,0.1506851762533188,-0.0779518410563469,-0.02945980802178383,-0.4422869384288788,-0.014513678848743439,0.14155016839504242,-0.02303379587829113,-0.6284715533256531,-0.1510300487279892,0.12842831015586853,-0.1215173751115799,0.3534882962703705,0.08681723475456238,0.3154665231704712,-0.16734150052070618,0.822840690612793,0.11894425749778748,0.10346883535385132,0.0023819648195058107,0.08010856062173843,0.3357792794704437,-0.6093292236328125,0.11511864513158798,0.03632237762212753,-0.3693999946117401,-0.033137205988168716,-0.47323623299598694,0.29397496581077576,0.5163905024528503,-0.14874140918254852,0.3598499000072479,0.08653351664543152,0.03932730853557587,0.22767384350299835,0.24663496017456055,-0.03223786503076553,0.12569203972816467,0.07959892600774765,-0.4088653028011322,0.17992565035820007,-0.1047920286655426,-0.1721903383731842,0.3635772466659546,-0.26357603073120117,0.005280175246298313,0.5153846740722656,-0.12306202203035355,-0.061548296362161636,-0.07472150027751923,-0.29933127760887146,-0.4187398850917816,-0.045433513820171356,0.2955103814601898,0.024234384298324585,-0.0039001961704343557,-0.021646257489919662,0.4600086510181427,-0.5292168259620667,0.2931329011917114,-0.20269529521465302,0.12259502708911896,0.2745366394519806,0.07922303676605225,-0.18428391218185425,-0.3046264052391052,0.2603992223739624,-0.19382478296756744,0.021307166665792465,-0.41944947838783264,0.0819762572646141,0.22593152523040771,-0.06378264725208282,0.25332576036453247,0.09140985459089279,-0.014649811200797558,0.0597754567861557,0.7477514147758484,0.11150611937046051,-0.16355116665363312,0.19830189645290375,0.07020322233438492,-0.03804932162165642,0.09590007364749908,0.30481505393981934,0.23642930388450623,-0.09679986536502838,-0.19040995836257935,-0.37409472465515137,0.1487756073474884,-0.19013214111328125,0.2539158761501312,-0.06166606768965721,0.17290082573890686,0.4950774610042572,-0.008681540377438068,0.18590985238552094,-0.14409443736076355,-0.07795119285583496,-0.0038857015315443277,-0.014853689819574356,0.16047820448875427,-0.1925576627254486,-0.16574957966804504,0.22248783707618713,0.3298645615577698,0.06976130604743958,0.256944864988327,0.6763901710510254,0.005733832251280546,-0.2118276208639145,0.5657606720924377,-0.098255954682827,-0.2223825454711914,0.295004665851593,-0.5006913542747498,-0.3190832734107971,0.4590076208114624,-0.1238330751657486,0.05714021623134613,0.008157944306731224,-0.17809583246707916,0.08612827211618423,-0.14312273263931274,-0.07568445801734924,0.35451775789260864,0.34234336018562317,0.04727127403020859,-0.08521141111850739,-0.023263458162546158,0.09466610848903656,-0.01352769322693348,0.5276203751564026,-0.4948660731315613,0.005368941929191351,0.34099841117858887,0.12243898957967758,0.06445769965648651,-0.09866766631603241,0.34334611892700195,0.055781278759241104,-0.4078381061553955,0.06846115738153458,-0.14351597428321838,-0.6079217791557312,-0.2113046646118164,-0.30886945128440857,-0.11931149661540985,-0.08069039136171341,0.09574257582426071,0.1930629014968872,0.38115638494491577,-0.26418864727020264,0.6520566344261169,0.03746434301137924,0.20477521419525146,0.17432762682437897,0.09720496088266373,0.32700854539871216,0.09158466011285782,-0.10679077357053757,-0.4649433195590973,0.0807260051369667,0.08450877666473389,0.2233687788248062,0.34982413053512573
